digraph Tree {
node [shape=box] ;
0 [label="X[47118] <= -0.1299\ngini = 0.8616\nsamples = 939\nvalue = [19, 97, 16, 44, 46, 253, 45, 31, 178, 20, 38, 43\n23, 17, 69]"] ;
1 [label="X[95171] <= -0.1776\ngini = 0.8855\nsamples = 638\nvalue = [19, 96, 16, 41, 24, 112, 45, 20, 117, 18, 28, 16\n15, 6, 65]"] ;
0 -> 1 [labeldistance=2.5, labelangle=45, headlabel="True"] ;
2 [label="X[80263] <= 0.9731\ngini = 0.8734\nsamples = 362\nvalue = [8, 73, 13, 33, 9, 39, 36, 6, 49, 18, 5, 4, 4\n0, 65]"] ;
1 -> 2 ;
3 [label="X[95196] <= -0.1046\ngini = 0.8731\nsamples = 351\nvalue = [8, 73, 13, 33, 9, 39, 36, 6, 38, 18, 5, 4, 4\n0, 65]"] ;
2 -> 3 ;
4 [label="X[40471] <= -0.0838\ngini = 0.871\nsamples = 334\nvalue = [8, 71, 13, 33, 8, 27, 36, 6, 36, 18, 5, 4, 4\n0, 65]"] ;
3 -> 4 ;
5 [label="X[68186] <= 0.5108\ngini = 0.8659\nsamples = 326\nvalue = [1, 71, 13, 33, 8, 27, 36, 6, 35, 18, 5, 4, 4\n0, 65]"] ;
4 -> 5 ;
6 [label="X[56336] <= -0.1539\ngini = 0.8646\nsamples = 320\nvalue = [1, 71, 13, 33, 8, 27, 30, 6, 35, 18, 5, 4, 4\n0, 65]"] ;
5 -> 6 ;
7 [label="X[75302] <= -0.1667\ngini = 0.868\nsamples = 309\nvalue = [1, 62, 13, 33, 8, 26, 30, 5, 35, 18, 5, 4, 4\n0, 65]"] ;
6 -> 7 ;
8 [label="X[43757] <= -0.1618\ngini = 0.8624\nsamples = 274\nvalue = [1, 52, 13, 33, 5, 26, 29, 4, 23, 17, 4, 2, 2\n0, 63]"] ;
7 -> 8 ;
9 [label="X[99637] <= -0.1785\ngini = 0.8613\nsamples = 265\nvalue = [1, 52, 13, 25, 5, 26, 29, 4, 23, 17, 4, 2, 2\n0, 62]"] ;
8 -> 9 ;
10 [label="X[62399] <= -0.1346\ngini = 0.8631\nsamples = 256\nvalue = [1, 45, 13, 25, 5, 26, 28, 4, 23, 16, 4, 2, 2\n0, 62]"] ;
9 -> 10 ;
11 [label="X[38788] <= -0.0467\ngini = 0.8611\nsamples = 245\nvalue = [1, 45, 13, 25, 5, 26, 28, 4, 16, 16, 4, 1, 2\n0, 59]"] ;
10 -> 11 ;
12 [label="X[47280] <= 0.1236\ngini = 0.8627\nsamples = 240\nvalue = [1, 40, 13, 25, 5, 26, 28, 4, 16, 16, 4, 1, 2\n0, 59]"] ;
11 -> 12 ;
13 [label="X[56696] <= -0.1035\ngini = 0.8614\nsamples = 236\nvalue = [1, 40, 13, 25, 5, 22, 28, 4, 16, 16, 4, 1, 2\n0, 59]"] ;
12 -> 13 ;
14 [label="X[91514] <= -0.1088\ngini = 0.8594\nsamples = 233\nvalue = [1, 40, 13, 25, 5, 22, 28, 4, 13, 16, 4, 1, 2\n0, 59]"] ;
13 -> 14 ;
15 [label="X[16508] <= -0.1337\ngini = 0.8581\nsamples = 230\nvalue = [1, 40, 13, 25, 5, 19, 28, 4, 13, 16, 4, 1, 2\n0, 59]"] ;
14 -> 15 ;
16 [label="X[61925] <= -0.0746\ngini = 0.8563\nsamples = 227\nvalue = [1, 40, 13, 25, 5, 16, 28, 4, 13, 16, 4, 1, 2\n0, 59]"] ;
15 -> 16 ;
17 [label="X[65459] <= -0.1327\ngini = 0.8508\nsamples = 220\nvalue = [1, 40, 10, 23, 3, 16, 28, 4, 13, 16, 4, 1, 2\n0, 59]"] ;
16 -> 17 ;
18 [label="X[88456] <= -0.0633\ngini = 0.8517\nsamples = 216\nvalue = [1, 36, 10, 23, 3, 16, 28, 4, 13, 16, 4, 1, 2\n0, 59]"] ;
17 -> 18 ;
19 [label="X[39137] <= -0.1775\ngini = 0.8494\nsamples = 210\nvalue = [1, 36, 10, 22, 3, 16, 24, 4, 12, 16, 4, 1, 2\n0, 59]"] ;
18 -> 19 ;
20 [label="X[55924] <= 0.0551\ngini = 0.8499\nsamples = 207\nvalue = [1, 33, 10, 22, 3, 16, 24, 4, 12, 16, 4, 1, 2\n0, 59]"] ;
19 -> 20 ;
21 [label="X[5243] <= -0.1062\ngini = 0.85\nsamples = 204\nvalue = [1, 30, 10, 22, 3, 16, 24, 4, 12, 16, 4, 1, 2\n0, 59]"] ;
20 -> 21 ;
22 [label="X[90831] <= -0.1802\ngini = 0.8553\nsamples = 200\nvalue = [1, 30, 10, 22, 3, 16, 24, 4, 12, 16, 4, 1, 2\n0, 55]"] ;
21 -> 22 ;
23 [label="X[14678] <= -0.1838\ngini = 0.8393\nsamples = 171\nvalue = [0, 30, 10, 21, 2, 13, 21, 1, 6, 14, 3, 0, 1\n0, 49]"] ;
22 -> 23 ;
24 [label="X[67541] <= -0.1744\ngini = 0.8396\nsamples = 168\nvalue = [0, 27, 10, 21, 2, 13, 21, 1, 6, 14, 3, 0, 1\n0, 49]"] ;
23 -> 24 ;
25 [label="X[39592] <= -0.1959\ngini = 0.8407\nsamples = 157\nvalue = [0, 21, 10, 20, 2, 13, 19, 1, 6, 14, 3, 0, 1\n0, 47]"] ;
24 -> 25 ;
26 [label="X[99416] <= -0.1776\ngini = 0.8385\nsamples = 155\nvalue = [0, 21, 10, 20, 2, 11, 19, 1, 6, 14, 3, 0, 1\n0, 47]"] ;
25 -> 26 ;
27 [label="X[44511] <= -0.1164\ngini = 0.8365\nsamples = 153\nvalue = [0, 21, 10, 20, 2, 11, 19, 1, 6, 12, 3, 0, 1\n0, 47]"] ;
26 -> 27 ;
28 [label="X[80656] <= -0.1604\ngini = 0.8353\nsamples = 151\nvalue = [0, 21, 10, 20, 2, 11, 17, 1, 6, 12, 3, 0, 1\n0, 47]"] ;
27 -> 28 ;
29 [label="X[92229] <= -0.036\ngini = 0.8337\nsamples = 149\nvalue = [0, 21, 10, 20, 2, 11, 15, 1, 6, 12, 3, 0, 1\n0, 47]"] ;
28 -> 29 ;
30 [label="X[47466] <= -0.1154\ngini = 0.8318\nsamples = 147\nvalue = [0, 21, 10, 20, 2, 11, 13, 1, 6, 12, 3, 0, 1\n0, 47]"] ;
29 -> 30 ;
31 [label="X[67466] <= -0.1558\ngini = 0.8294\nsamples = 145\nvalue = [0, 21, 10, 20, 2, 11, 11, 1, 6, 12, 3, 0, 1\n0, 47]"] ;
30 -> 31 ;
32 [label="X[28068] <= -0.1936\ngini = 0.822\nsamples = 141\nvalue = [0, 21, 9, 20, 2, 10, 11, 1, 6, 12, 1, 0, 1, 0\n47]"] ;
31 -> 32 ;
33 [label="X[11491] <= -0.0796\ngini = 0.8324\nsamples = 135\nvalue = [0, 21, 9, 19, 2, 10, 11, 1, 6, 12, 1, 0, 1, 0\n42]"] ;
32 -> 33 ;
34 [label="X[30934] <= -0.1165\ngini = 0.8314\nsamples = 133\nvalue = [0, 21, 9, 17, 2, 10, 11, 1, 6, 12, 1, 0, 1, 0\n42]"] ;
33 -> 34 ;
35 [label="X[44179] <= -0.1558\ngini = 0.8308\nsamples = 131\nvalue = [0, 19, 9, 17, 2, 10, 11, 1, 6, 12, 1, 0, 1, 0\n42]"] ;
34 -> 35 ;
36 [label="X[79550] <= -0.2201\ngini = 0.8376\nsamples = 128\nvalue = [0, 19, 9, 17, 2, 10, 11, 1, 6, 12, 1, 0, 1, 0\n39]"] ;
35 -> 36 ;
37 [label="X[64198] <= -0.1316\ngini = 0.8336\nsamples = 124\nvalue = [0, 18, 9, 15, 2, 10, 11, 0, 6, 12, 1, 0, 1, 0\n39]"] ;
36 -> 37 ;
38 [label="X[58489] <= -0.191\ngini = 0.8275\nsamples = 120\nvalue = [0, 18, 8, 15, 2, 8, 10, 0, 6, 12, 1, 0, 1, 0\n39]"] ;
37 -> 38 ;
39 [label="X[95197] <= -0.1091\ngini = 0.8202\nsamples = 117\nvalue = [0, 18, 8, 15, 1, 8, 9, 0, 6, 12, 1, 0, 0, 0\n39]"] ;
38 -> 39 ;
40 [label="X[39452] <= -0.1716\ngini = 0.8127\nsamples = 114\nvalue = [0, 18, 8, 15, 0, 7, 9, 0, 5, 12, 1, 0, 0, 0\n39]"] ;
39 -> 40 ;
41 [label="X[90420] <= -0.2109\ngini = 0.8068\nsamples = 112\nvalue = [0, 18, 8, 15, 0, 7, 9, 0, 4, 12, 0, 0, 0, 0\n39]"] ;
40 -> 41 ;
42 [label="X[62791] <= 0.736\ngini = 0.8013\nsamples = 110\nvalue = [0, 18, 8, 15, 0, 6, 9, 0, 3, 12, 0, 0, 0, 0\n39]"] ;
41 -> 42 ;
43 [label="X[44380] <= 1.4185\ngini = 0.7986\nsamples = 109\nvalue = [0, 18, 8, 15, 0, 5, 9, 0, 3, 12, 0, 0, 0, 0\n39]"] ;
42 -> 43 ;
44 [label="X[75739] <= 0.1161\ngini = 0.7956\nsamples = 108\nvalue = [0, 18, 8, 15, 0, 4, 9, 0, 3, 12, 0, 0, 0, 0\n39]"] ;
43 -> 44 ;
45 [label="X[7646] <= -0.1327\ngini = 0.7924\nsamples = 107\nvalue = [0, 18, 8, 15, 0, 3, 9, 0, 3, 12, 0, 0, 0, 0\n39]"] ;
44 -> 45 ;
46 [label="X[96134] <= 0.2442\ngini = 0.7889\nsamples = 106\nvalue = [0, 18, 8, 15, 0, 2, 9, 0, 3, 12, 0, 0, 0, 0\n39]"] ;
45 -> 46 ;
47 [label="X[13044] <= 3.5341\ngini = 0.7862\nsamples = 105\nvalue = [0, 18, 7, 15, 0, 2, 9, 0, 3, 12, 0, 0, 0, 0\n39]"] ;
46 -> 47 ;
48 [label="X[88673] <= 0.3287\ngini = 0.7833\nsamples = 104\nvalue = [0, 18, 6, 15, 0, 2, 9, 0, 3, 12, 0, 0, 0, 0\n39]"] ;
47 -> 48 ;
49 [label="X[62962] <= 0.9157\ngini = 0.7801\nsamples = 103\nvalue = [0, 18, 5, 15, 0, 2, 9, 0, 3, 12, 0, 0, 0, 0\n39]"] ;
48 -> 49 ;
50 [label="X[78561] <= 0.0465\ngini = 0.7766\nsamples = 102\nvalue = [0, 18, 4, 15, 0, 2, 9, 0, 3, 12, 0, 0, 0, 0\n39]"] ;
49 -> 50 ;
51 [label="X[30595] <= 0.2768\ngini = 0.7729\nsamples = 101\nvalue = [0, 18, 3, 15, 0, 2, 9, 0, 3, 12, 0, 0, 0, 0\n39]"] ;
50 -> 51 ;
52 [label="X[91927] <= 0.4402\ngini = 0.7688\nsamples = 100\nvalue = [0, 18, 2, 15, 0, 2, 9, 0, 3, 12, 0, 0, 0, 0\n39]"] ;
51 -> 52 ;
53 [label="X[38631] <= -0.1584\ngini = 0.7644\nsamples = 99\nvalue = [0, 18, 1, 15, 0, 2, 9, 0, 3, 12, 0, 0, 0, 0\n39]"] ;
52 -> 53 ;
54 [label="X[40460] <= 0.2707\ngini = 0.7613\nsamples = 98\nvalue = [0, 18, 1, 15, 0, 2, 8, 0, 3, 12, 0, 0, 0, 0\n39]"] ;
53 -> 54 ;
55 [label="X[59863] <= 0.2987\ngini = 0.758\nsamples = 97\nvalue = [0, 18, 1, 15, 0, 2, 7, 0, 3, 12, 0, 0, 0, 0\n39]"] ;
54 -> 55 ;
56 [label="X[34046] <= 3.0874\ngini = 0.7543\nsamples = 96\nvalue = [0, 18, 1, 15, 0, 2, 6, 0, 3, 12, 0, 0, 0, 0\n39]"] ;
55 -> 56 ;
57 [label="X[60042] <= 1.5149\ngini = 0.7504\nsamples = 95\nvalue = [0, 18, 1, 15, 0, 2, 5, 0, 3, 12, 0, 0, 0, 0\n39]"] ;
56 -> 57 ;
58 [label="X[95377] <= 2.0353\ngini = 0.746\nsamples = 94\nvalue = [0, 18, 1, 15, 0, 2, 4, 0, 3, 12, 0, 0, 0, 0\n39]"] ;
57 -> 58 ;
59 [label="X[99161] <= -0.1672\ngini = 0.7414\nsamples = 93\nvalue = [0, 18, 1, 15, 0, 2, 3, 0, 3, 12, 0, 0, 0, 0\n39]"] ;
58 -> 59 ;
60 [label="X[35121] <= -0.097\ngini = 0.7384\nsamples = 92\nvalue = [0, 18, 1, 15, 0, 2, 3, 0, 3, 11, 0, 0, 0, 0\n39]"] ;
59 -> 60 ;
61 [label="X[68810] <= 0.4771\ngini = 0.7352\nsamples = 91\nvalue = [0, 18, 1, 15, 0, 2, 3, 0, 3, 10, 0, 0, 0, 0\n39]"] ;
60 -> 61 ;
62 [label="X[80270] <= 0.1293\ngini = 0.7316\nsamples = 90\nvalue = [0, 18, 1, 15, 0, 2, 3, 0, 3, 9, 0, 0, 0, 0\n39]"] ;
61 -> 62 ;
63 [label="X[41581] <= -0.2096\ngini = 0.7277\nsamples = 89\nvalue = [0, 18, 1, 15, 0, 2, 3, 0, 3, 8, 0, 0, 0, 0\n39]"] ;
62 -> 63 ;
64 [label="X[76503] <= 1.8328\ngini = 0.7388\nsamples = 86\nvalue = [0, 18, 1, 15, 0, 2, 3, 0, 3, 8, 0, 0, 0, 0\n36]"] ;
63 -> 64 ;
65 [label="X[41265] <= 1.9677\ngini = 0.7347\nsamples = 85\nvalue = [0, 18, 1, 15, 0, 2, 3, 0, 3, 7, 0, 0, 0, 0\n36]"] ;
64 -> 65 ;
66 [label="X[51729] <= 0.7142\ngini = 0.7302\nsamples = 84\nvalue = [0, 18, 1, 15, 0, 2, 3, 0, 3, 6, 0, 0, 0, 0\n36]"] ;
65 -> 66 ;
67 [label="X[76373] <= 0.8055\ngini = 0.7252\nsamples = 83\nvalue = [0, 18, 1, 15, 0, 2, 3, 0, 3, 5, 0, 0, 0, 0\n36]"] ;
66 -> 67 ;
68 [label="X[26325] <= 0.0058\ngini = 0.7228\nsamples = 82\nvalue = [0, 18, 1, 14, 0, 2, 3, 0, 3, 5, 0, 0, 0, 0\n36]"] ;
67 -> 68 ;
69 [label="X[83263] <= 0.4779\ngini = 0.72\nsamples = 81\nvalue = [0, 18, 1, 13, 0, 2, 3, 0, 3, 5, 0, 0, 0, 0\n36]"] ;
68 -> 69 ;
70 [label="X[51874] <= 4.6629\ngini = 0.7169\nsamples = 80\nvalue = [0, 18, 1, 12, 0, 2, 3, 0, 3, 5, 0, 0, 0, 0\n36]"] ;
69 -> 70 ;
71 [label="X[59501] <= -0.1316\ngini = 0.7133\nsamples = 79\nvalue = [0, 18, 1, 11, 0, 2, 3, 0, 3, 5, 0, 0, 0, 0\n36]"] ;
70 -> 71 ;
72 [label="X[8250] <= 4.7674\ngini = 0.7094\nsamples = 78\nvalue = [0, 18, 1, 10, 0, 2, 3, 0, 3, 5, 0, 0, 0, 0\n36]"] ;
71 -> 72 ;
73 [label="X[47986] <= 0.9464\ngini = 0.7077\nsamples = 77\nvalue = [0, 17, 1, 10, 0, 2, 3, 0, 3, 5, 0, 0, 0, 0\n36]"] ;
72 -> 73 ;
74 [label="X[3784] <= -0.1448\ngini = 0.7057\nsamples = 76\nvalue = [0, 16, 1, 10, 0, 2, 3, 0, 3, 5, 0, 0, 0, 0\n36]"] ;
73 -> 74 ;
75 [label="X[88847] <= -0.1953\ngini = 0.7033\nsamples = 75\nvalue = [0, 15, 1, 10, 0, 2, 3, 0, 3, 5, 0, 0, 0, 0\n36]"] ;
74 -> 75 ;
76 [label="X[67541] <= -0.1747\ngini = 0.7005\nsamples = 74\nvalue = [0, 14, 1, 10, 0, 2, 3, 0, 3, 5, 0, 0, 0, 0\n36]"] ;
75 -> 76 ;
77 [label="X[14133] <= -0.1413\ngini = 0.7208\nsamples = 70\nvalue = [0, 14, 1, 10, 0, 2, 3, 0, 3, 5, 0, 0, 0, 0\n32]"] ;
76 -> 77 ;
78 [label="X[76922] <= 5.0236\ngini = 0.7167\nsamples = 69\nvalue = [0, 14, 1, 9, 0, 2, 3, 0, 3, 5, 0, 0, 0, 0\n32]"] ;
77 -> 78 ;
79 [label="X[64552] <= 2.9717\ngini = 0.7141\nsamples = 68\nvalue = [0, 13, 1, 9, 0, 2, 3, 0, 3, 5, 0, 0, 0, 0\n32]"] ;
78 -> 79 ;
80 [label="X[11489] <= 0.8687\ngini = 0.7111\nsamples = 67\nvalue = [0, 12, 1, 9, 0, 2, 3, 0, 3, 5, 0, 0, 0, 0\n32]"] ;
79 -> 80 ;
81 [label="X[65852] <= -0.176\ngini = 0.7075\nsamples = 66\nvalue = [0, 11, 1, 9, 0, 2, 3, 0, 3, 5, 0, 0, 0, 0\n32]"] ;
80 -> 81 ;
82 [label="X[96139] <= 0.4182\ngini = 0.7034\nsamples = 65\nvalue = [0, 10, 1, 9, 0, 2, 3, 0, 3, 5, 0, 0, 0, 0\n32]"] ;
81 -> 82 ;
83 [label="X[44102] <= 0.754\ngini = 0.6987\nsamples = 64\nvalue = [0, 9, 1, 9, 0, 2, 3, 0, 3, 5, 0, 0, 0, 0\n32]"] ;
82 -> 83 ;
84 [label="X[71366] <= 0.6941\ngini = 0.6934\nsamples = 63\nvalue = [0, 8, 1, 9, 0, 2, 3, 0, 3, 5, 0, 0, 0, 0\n32]"] ;
83 -> 84 ;
85 [label="X[58910] <= 0.104\ngini = 0.6873\nsamples = 62\nvalue = [0, 7, 1, 9, 0, 2, 3, 0, 3, 5, 0, 0, 0, 0\n32]"] ;
84 -> 85 ;
86 [label="X[28068] <= -0.1939\ngini = 0.6805\nsamples = 61\nvalue = [0, 6, 1, 9, 0, 2, 3, 0, 3, 5, 0, 0, 0, 0\n32]"] ;
85 -> 86 ;
87 [label="X[62217] <= -0.1919\ngini = 0.6941\nsamples = 59\nvalue = [0, 6, 1, 9, 0, 2, 3, 0, 3, 5, 0, 0, 0, 0\n30]"] ;
86 -> 87 ;
88 [label="X[45697] <= 0.986\ngini = 0.701\nsamples = 58\nvalue = [0, 6, 1, 9, 0, 2, 3, 0, 3, 5, 0, 0, 0, 0\n29]"] ;
87 -> 88 ;
89 [label="X[65506] <= -0.1816\ngini = 0.7079\nsamples = 57\nvalue = [0, 6, 1, 9, 0, 2, 3, 0, 3, 5, 0, 0, 0, 0\n28]"] ;
88 -> 89 ;
90 [label="X[95873] <= 1.1326\ngini = 0.7149\nsamples = 56\nvalue = [0, 6, 1, 9, 0, 2, 3, 0, 3, 5, 0, 0, 0, 0\n27]"] ;
89 -> 90 ;
91 [label="X[76699] <= 0.8132\ngini = 0.722\nsamples = 55\nvalue = [0, 6, 1, 9, 0, 2, 3, 0, 3, 5, 0, 0, 0, 0\n26]"] ;
90 -> 91 ;
92 [label="X[21270] <= -0.0745\ngini = 0.7291\nsamples = 54\nvalue = [0, 6, 1, 9, 0, 2, 3, 0, 3, 5, 0, 0, 0, 0\n25]"] ;
91 -> 92 ;
93 [label="X[81904] <= 0.4637\ngini = 0.7362\nsamples = 53\nvalue = [0, 6, 1, 9, 0, 2, 3, 0, 3, 5, 0, 0, 0, 0\n24]"] ;
92 -> 93 ;
94 [label="X[38104] <= -0.1082\ngini = 0.7433\nsamples = 52\nvalue = [0, 6, 1, 9, 0, 2, 3, 0, 3, 5, 0, 0, 0, 0\n23]"] ;
93 -> 94 ;
95 [label="X[96276] <= 4.5489\ngini = 0.7505\nsamples = 51\nvalue = [0, 6, 1, 9, 0, 2, 3, 0, 3, 5, 0, 0, 0, 0\n22]"] ;
94 -> 95 ;
96 [label="X[43222] <= -0.1109\ngini = 0.7576\nsamples = 50\nvalue = [0, 6, 1, 9, 0, 2, 3, 0, 3, 5, 0, 0, 0, 0\n21]"] ;
95 -> 96 ;
97 [label="gini = 0.7647\nsamples = 49\nvalue = [0, 6, 1, 9, 0, 2, 3, 0, 3, 5, 0, 0, 0, 0\n20]"] ;
96 -> 97 ;
98 [label="gini = 0.0\nsamples = 1\nvalue = [0, 0, 0, 0, 0, 0, 0, 0, 0, 0, 0, 0, 0, 0, 1]"] ;
96 -> 98 ;
99 [label="gini = 0.0\nsamples = 1\nvalue = [0, 0, 0, 0, 0, 0, 0, 0, 0, 0, 0, 0, 0, 0, 1]"] ;
95 -> 99 ;
100 [label="gini = 0.0\nsamples = 1\nvalue = [0, 0, 0, 0, 0, 0, 0, 0, 0, 0, 0, 0, 0, 0, 1]"] ;
94 -> 100 ;
101 [label="gini = 0.0\nsamples = 1\nvalue = [0, 0, 0, 0, 0, 0, 0, 0, 0, 0, 0, 0, 0, 0, 1]"] ;
93 -> 101 ;
102 [label="gini = 0.0\nsamples = 1\nvalue = [0, 0, 0, 0, 0, 0, 0, 0, 0, 0, 0, 0, 0, 0, 1]"] ;
92 -> 102 ;
103 [label="gini = 0.0\nsamples = 1\nvalue = [0, 0, 0, 0, 0, 0, 0, 0, 0, 0, 0, 0, 0, 0, 1]"] ;
91 -> 103 ;
104 [label="gini = 0.0\nsamples = 1\nvalue = [0, 0, 0, 0, 0, 0, 0, 0, 0, 0, 0, 0, 0, 0, 1]"] ;
90 -> 104 ;
105 [label="gini = 0.0\nsamples = 1\nvalue = [0, 0, 0, 0, 0, 0, 0, 0, 0, 0, 0, 0, 0, 0, 1]"] ;
89 -> 105 ;
106 [label="gini = 0.0\nsamples = 1\nvalue = [0, 0, 0, 0, 0, 0, 0, 0, 0, 0, 0, 0, 0, 0, 1]"] ;
88 -> 106 ;
107 [label="gini = 0.0\nsamples = 1\nvalue = [0, 0, 0, 0, 0, 0, 0, 0, 0, 0, 0, 0, 0, 0, 1]"] ;
87 -> 107 ;
108 [label="gini = 0.0\nsamples = 2\nvalue = [0, 0, 0, 0, 0, 0, 0, 0, 0, 0, 0, 0, 0, 0, 2]"] ;
86 -> 108 ;
109 [label="gini = 0.0\nsamples = 1\nvalue = [0, 1, 0, 0, 0, 0, 0, 0, 0, 0, 0, 0, 0, 0, 0]"] ;
85 -> 109 ;
110 [label="gini = 0.0\nsamples = 1\nvalue = [0, 1, 0, 0, 0, 0, 0, 0, 0, 0, 0, 0, 0, 0, 0]"] ;
84 -> 110 ;
111 [label="gini = 0.0\nsamples = 1\nvalue = [0, 1, 0, 0, 0, 0, 0, 0, 0, 0, 0, 0, 0, 0, 0]"] ;
83 -> 111 ;
112 [label="gini = 0.0\nsamples = 1\nvalue = [0, 1, 0, 0, 0, 0, 0, 0, 0, 0, 0, 0, 0, 0, 0]"] ;
82 -> 112 ;
113 [label="gini = 0.0\nsamples = 1\nvalue = [0, 1, 0, 0, 0, 0, 0, 0, 0, 0, 0, 0, 0, 0, 0]"] ;
81 -> 113 ;
114 [label="gini = 0.0\nsamples = 1\nvalue = [0, 1, 0, 0, 0, 0, 0, 0, 0, 0, 0, 0, 0, 0, 0]"] ;
80 -> 114 ;
115 [label="gini = 0.0\nsamples = 1\nvalue = [0, 1, 0, 0, 0, 0, 0, 0, 0, 0, 0, 0, 0, 0, 0]"] ;
79 -> 115 ;
116 [label="gini = 0.0\nsamples = 1\nvalue = [0, 1, 0, 0, 0, 0, 0, 0, 0, 0, 0, 0, 0, 0, 0]"] ;
78 -> 116 ;
117 [label="gini = 0.0\nsamples = 1\nvalue = [0, 0, 0, 1, 0, 0, 0, 0, 0, 0, 0, 0, 0, 0, 0]"] ;
77 -> 117 ;
118 [label="gini = 0.0\nsamples = 4\nvalue = [0, 0, 0, 0, 0, 0, 0, 0, 0, 0, 0, 0, 0, 0, 4]"] ;
76 -> 118 ;
119 [label="gini = 0.0\nsamples = 1\nvalue = [0, 1, 0, 0, 0, 0, 0, 0, 0, 0, 0, 0, 0, 0, 0]"] ;
75 -> 119 ;
120 [label="gini = 0.0\nsamples = 1\nvalue = [0, 1, 0, 0, 0, 0, 0, 0, 0, 0, 0, 0, 0, 0, 0]"] ;
74 -> 120 ;
121 [label="gini = 0.0\nsamples = 1\nvalue = [0, 1, 0, 0, 0, 0, 0, 0, 0, 0, 0, 0, 0, 0, 0]"] ;
73 -> 121 ;
122 [label="gini = 0.0\nsamples = 1\nvalue = [0, 1, 0, 0, 0, 0, 0, 0, 0, 0, 0, 0, 0, 0, 0]"] ;
72 -> 122 ;
123 [label="gini = 0.0\nsamples = 1\nvalue = [0, 0, 0, 1, 0, 0, 0, 0, 0, 0, 0, 0, 0, 0, 0]"] ;
71 -> 123 ;
124 [label="gini = 0.0\nsamples = 1\nvalue = [0, 0, 0, 1, 0, 0, 0, 0, 0, 0, 0, 0, 0, 0, 0]"] ;
70 -> 124 ;
125 [label="gini = 0.0\nsamples = 1\nvalue = [0, 0, 0, 1, 0, 0, 0, 0, 0, 0, 0, 0, 0, 0, 0]"] ;
69 -> 125 ;
126 [label="gini = 0.0\nsamples = 1\nvalue = [0, 0, 0, 1, 0, 0, 0, 0, 0, 0, 0, 0, 0, 0, 0]"] ;
68 -> 126 ;
127 [label="gini = 0.0\nsamples = 1\nvalue = [0, 0, 0, 1, 0, 0, 0, 0, 0, 0, 0, 0, 0, 0, 0]"] ;
67 -> 127 ;
128 [label="gini = 0.0\nsamples = 1\nvalue = [0, 0, 0, 0, 0, 0, 0, 0, 0, 1, 0, 0, 0, 0, 0]"] ;
66 -> 128 ;
129 [label="gini = 0.0\nsamples = 1\nvalue = [0, 0, 0, 0, 0, 0, 0, 0, 0, 1, 0, 0, 0, 0, 0]"] ;
65 -> 129 ;
130 [label="gini = 0.0\nsamples = 1\nvalue = [0, 0, 0, 0, 0, 0, 0, 0, 0, 1, 0, 0, 0, 0, 0]"] ;
64 -> 130 ;
131 [label="gini = 0.0\nsamples = 3\nvalue = [0, 0, 0, 0, 0, 0, 0, 0, 0, 0, 0, 0, 0, 0, 3]"] ;
63 -> 131 ;
132 [label="gini = 0.0\nsamples = 1\nvalue = [0, 0, 0, 0, 0, 0, 0, 0, 0, 1, 0, 0, 0, 0, 0]"] ;
62 -> 132 ;
133 [label="gini = 0.0\nsamples = 1\nvalue = [0, 0, 0, 0, 0, 0, 0, 0, 0, 1, 0, 0, 0, 0, 0]"] ;
61 -> 133 ;
134 [label="gini = 0.0\nsamples = 1\nvalue = [0, 0, 0, 0, 0, 0, 0, 0, 0, 1, 0, 0, 0, 0, 0]"] ;
60 -> 134 ;
135 [label="gini = 0.0\nsamples = 1\nvalue = [0, 0, 0, 0, 0, 0, 0, 0, 0, 1, 0, 0, 0, 0, 0]"] ;
59 -> 135 ;
136 [label="gini = 0.0\nsamples = 1\nvalue = [0, 0, 0, 0, 0, 0, 1, 0, 0, 0, 0, 0, 0, 0, 0]"] ;
58 -> 136 ;
137 [label="gini = 0.0\nsamples = 1\nvalue = [0, 0, 0, 0, 0, 0, 1, 0, 0, 0, 0, 0, 0, 0, 0]"] ;
57 -> 137 ;
138 [label="gini = 0.0\nsamples = 1\nvalue = [0, 0, 0, 0, 0, 0, 1, 0, 0, 0, 0, 0, 0, 0, 0]"] ;
56 -> 138 ;
139 [label="gini = 0.0\nsamples = 1\nvalue = [0, 0, 0, 0, 0, 0, 1, 0, 0, 0, 0, 0, 0, 0, 0]"] ;
55 -> 139 ;
140 [label="gini = 0.0\nsamples = 1\nvalue = [0, 0, 0, 0, 0, 0, 1, 0, 0, 0, 0, 0, 0, 0, 0]"] ;
54 -> 140 ;
141 [label="gini = 0.0\nsamples = 1\nvalue = [0, 0, 0, 0, 0, 0, 1, 0, 0, 0, 0, 0, 0, 0, 0]"] ;
53 -> 141 ;
142 [label="gini = 0.0\nsamples = 1\nvalue = [0, 0, 1, 0, 0, 0, 0, 0, 0, 0, 0, 0, 0, 0, 0]"] ;
52 -> 142 ;
143 [label="gini = 0.0\nsamples = 1\nvalue = [0, 0, 1, 0, 0, 0, 0, 0, 0, 0, 0, 0, 0, 0, 0]"] ;
51 -> 143 ;
144 [label="gini = 0.0\nsamples = 1\nvalue = [0, 0, 1, 0, 0, 0, 0, 0, 0, 0, 0, 0, 0, 0, 0]"] ;
50 -> 144 ;
145 [label="gini = 0.0\nsamples = 1\nvalue = [0, 0, 1, 0, 0, 0, 0, 0, 0, 0, 0, 0, 0, 0, 0]"] ;
49 -> 145 ;
146 [label="gini = 0.0\nsamples = 1\nvalue = [0, 0, 1, 0, 0, 0, 0, 0, 0, 0, 0, 0, 0, 0, 0]"] ;
48 -> 146 ;
147 [label="gini = 0.0\nsamples = 1\nvalue = [0, 0, 1, 0, 0, 0, 0, 0, 0, 0, 0, 0, 0, 0, 0]"] ;
47 -> 147 ;
148 [label="gini = 0.0\nsamples = 1\nvalue = [0, 0, 1, 0, 0, 0, 0, 0, 0, 0, 0, 0, 0, 0, 0]"] ;
46 -> 148 ;
149 [label="gini = 0.0\nsamples = 1\nvalue = [0, 0, 0, 0, 0, 1, 0, 0, 0, 0, 0, 0, 0, 0, 0]"] ;
45 -> 149 ;
150 [label="gini = 0.0\nsamples = 1\nvalue = [0, 0, 0, 0, 0, 1, 0, 0, 0, 0, 0, 0, 0, 0, 0]"] ;
44 -> 150 ;
151 [label="gini = 0.0\nsamples = 1\nvalue = [0, 0, 0, 0, 0, 1, 0, 0, 0, 0, 0, 0, 0, 0, 0]"] ;
43 -> 151 ;
152 [label="gini = 0.0\nsamples = 1\nvalue = [0, 0, 0, 0, 0, 1, 0, 0, 0, 0, 0, 0, 0, 0, 0]"] ;
42 -> 152 ;
153 [label="X[75056] <= -0.0782\ngini = 0.5\nsamples = 2\nvalue = [0, 0, 0, 0, 0, 1, 0, 0, 1, 0, 0, 0, 0, 0, 0]"] ;
41 -> 153 ;
154 [label="gini = 0.0\nsamples = 1\nvalue = [0, 0, 0, 0, 0, 0, 0, 0, 1, 0, 0, 0, 0, 0, 0]"] ;
153 -> 154 ;
155 [label="gini = 0.0\nsamples = 1\nvalue = [0, 0, 0, 0, 0, 1, 0, 0, 0, 0, 0, 0, 0, 0, 0]"] ;
153 -> 155 ;
156 [label="X[20866] <= -0.0453\ngini = 0.5\nsamples = 2\nvalue = [0, 0, 0, 0, 0, 0, 0, 0, 1, 0, 1, 0, 0, 0, 0]"] ;
40 -> 156 ;
157 [label="gini = 0.0\nsamples = 1\nvalue = [0, 0, 0, 0, 0, 0, 0, 0, 1, 0, 0, 0, 0, 0, 0]"] ;
156 -> 157 ;
158 [label="gini = 0.0\nsamples = 1\nvalue = [0, 0, 0, 0, 0, 0, 0, 0, 0, 0, 1, 0, 0, 0, 0]"] ;
156 -> 158 ;
159 [label="X[7554] <= -0.2027\ngini = 0.6667\nsamples = 3\nvalue = [0, 0, 0, 0, 1, 1, 0, 0, 1, 0, 0, 0, 0, 0, 0]"] ;
39 -> 159 ;
160 [label="X[22893] <= 1.0112\ngini = 0.5\nsamples = 2\nvalue = [0, 0, 0, 0, 1, 0, 0, 0, 1, 0, 0, 0, 0, 0, 0]"] ;
159 -> 160 ;
161 [label="gini = 0.0\nsamples = 1\nvalue = [0, 0, 0, 0, 1, 0, 0, 0, 0, 0, 0, 0, 0, 0, 0]"] ;
160 -> 161 ;
162 [label="gini = 0.0\nsamples = 1\nvalue = [0, 0, 0, 0, 0, 0, 0, 0, 1, 0, 0, 0, 0, 0, 0]"] ;
160 -> 162 ;
163 [label="gini = 0.0\nsamples = 1\nvalue = [0, 0, 0, 0, 0, 1, 0, 0, 0, 0, 0, 0, 0, 0, 0]"] ;
159 -> 163 ;
164 [label="X[75738] <= -0.0967\ngini = 0.6667\nsamples = 3\nvalue = [0, 0, 0, 0, 1, 0, 1, 0, 0, 0, 0, 0, 1, 0, 0]"] ;
38 -> 164 ;
165 [label="X[28094] <= -0.1385\ngini = 0.5\nsamples = 2\nvalue = [0, 0, 0, 0, 1, 0, 1, 0, 0, 0, 0, 0, 0, 0, 0]"] ;
164 -> 165 ;
166 [label="gini = 0.0\nsamples = 1\nvalue = [0, 0, 0, 0, 0, 0, 1, 0, 0, 0, 0, 0, 0, 0, 0]"] ;
165 -> 166 ;
167 [label="gini = 0.0\nsamples = 1\nvalue = [0, 0, 0, 0, 1, 0, 0, 0, 0, 0, 0, 0, 0, 0, 0]"] ;
165 -> 167 ;
168 [label="gini = 0.0\nsamples = 1\nvalue = [0, 0, 0, 0, 0, 0, 0, 0, 0, 0, 0, 0, 1, 0, 0]"] ;
164 -> 168 ;
169 [label="X[28068] <= -0.1939\ngini = 0.625\nsamples = 4\nvalue = [0, 0, 1, 0, 0, 2, 1, 0, 0, 0, 0, 0, 0, 0, 0]"] ;
37 -> 169 ;
170 [label="gini = 0.0\nsamples = 2\nvalue = [0, 0, 0, 0, 0, 2, 0, 0, 0, 0, 0, 0, 0, 0, 0]"] ;
169 -> 170 ;
171 [label="X[85797] <= 0.0206\ngini = 0.5\nsamples = 2\nvalue = [0, 0, 1, 0, 0, 0, 1, 0, 0, 0, 0, 0, 0, 0, 0]"] ;
169 -> 171 ;
172 [label="gini = 0.0\nsamples = 1\nvalue = [0, 0, 0, 0, 0, 0, 1, 0, 0, 0, 0, 0, 0, 0, 0]"] ;
171 -> 172 ;
173 [label="gini = 0.0\nsamples = 1\nvalue = [0, 0, 1, 0, 0, 0, 0, 0, 0, 0, 0, 0, 0, 0, 0]"] ;
171 -> 173 ;
174 [label="X[68182] <= -0.1933\ngini = 0.625\nsamples = 4\nvalue = [0, 1, 0, 2, 0, 0, 0, 1, 0, 0, 0, 0, 0, 0, 0]"] ;
36 -> 174 ;
175 [label="X[180] <= -0.1682\ngini = 0.5\nsamples = 2\nvalue = [0, 1, 0, 0, 0, 0, 0, 1, 0, 0, 0, 0, 0, 0, 0]"] ;
174 -> 175 ;
176 [label="gini = 0.0\nsamples = 1\nvalue = [0, 1, 0, 0, 0, 0, 0, 0, 0, 0, 0, 0, 0, 0, 0]"] ;
175 -> 176 ;
177 [label="gini = 0.0\nsamples = 1\nvalue = [0, 0, 0, 0, 0, 0, 0, 1, 0, 0, 0, 0, 0, 0, 0]"] ;
175 -> 177 ;
178 [label="gini = 0.0\nsamples = 2\nvalue = [0, 0, 0, 2, 0, 0, 0, 0, 0, 0, 0, 0, 0, 0, 0]"] ;
174 -> 178 ;
179 [label="gini = 0.0\nsamples = 3\nvalue = [0, 0, 0, 0, 0, 0, 0, 0, 0, 0, 0, 0, 0, 0, 3]"] ;
35 -> 179 ;
180 [label="gini = 0.0\nsamples = 2\nvalue = [0, 2, 0, 0, 0, 0, 0, 0, 0, 0, 0, 0, 0, 0, 0]"] ;
34 -> 180 ;
181 [label="gini = 0.0\nsamples = 2\nvalue = [0, 0, 0, 2, 0, 0, 0, 0, 0, 0, 0, 0, 0, 0, 0]"] ;
33 -> 181 ;
182 [label="X[97648] <= -0.161\ngini = 0.2778\nsamples = 6\nvalue = [0, 0, 0, 1, 0, 0, 0, 0, 0, 0, 0, 0, 0, 0, 5]"] ;
32 -> 182 ;
183 [label="gini = 0.0\nsamples = 5\nvalue = [0, 0, 0, 0, 0, 0, 0, 0, 0, 0, 0, 0, 0, 0, 5]"] ;
182 -> 183 ;
184 [label="gini = 0.0\nsamples = 1\nvalue = [0, 0, 0, 1, 0, 0, 0, 0, 0, 0, 0, 0, 0, 0, 0]"] ;
182 -> 184 ;
185 [label="X[15363] <= 0.4012\ngini = 0.625\nsamples = 4\nvalue = [0, 0, 1, 0, 0, 1, 0, 0, 0, 0, 2, 0, 0, 0, 0]"] ;
31 -> 185 ;
186 [label="X[27749] <= -0.1164\ngini = 0.4444\nsamples = 3\nvalue = [0, 0, 0, 0, 0, 1, 0, 0, 0, 0, 2, 0, 0, 0, 0]"] ;
185 -> 186 ;
187 [label="gini = 0.0\nsamples = 2\nvalue = [0, 0, 0, 0, 0, 0, 0, 0, 0, 0, 2, 0, 0, 0, 0]"] ;
186 -> 187 ;
188 [label="gini = 0.0\nsamples = 1\nvalue = [0, 0, 0, 0, 0, 1, 0, 0, 0, 0, 0, 0, 0, 0, 0]"] ;
186 -> 188 ;
189 [label="gini = 0.0\nsamples = 1\nvalue = [0, 0, 1, 0, 0, 0, 0, 0, 0, 0, 0, 0, 0, 0, 0]"] ;
185 -> 189 ;
190 [label="gini = 0.0\nsamples = 2\nvalue = [0, 0, 0, 0, 0, 0, 2, 0, 0, 0, 0, 0, 0, 0, 0]"] ;
30 -> 190 ;
191 [label="gini = 0.0\nsamples = 2\nvalue = [0, 0, 0, 0, 0, 0, 2, 0, 0, 0, 0, 0, 0, 0, 0]"] ;
29 -> 191 ;
192 [label="gini = 0.0\nsamples = 2\nvalue = [0, 0, 0, 0, 0, 0, 2, 0, 0, 0, 0, 0, 0, 0, 0]"] ;
28 -> 192 ;
193 [label="gini = 0.0\nsamples = 2\nvalue = [0, 0, 0, 0, 0, 0, 2, 0, 0, 0, 0, 0, 0, 0, 0]"] ;
27 -> 193 ;
194 [label="gini = 0.0\nsamples = 2\nvalue = [0, 0, 0, 0, 0, 0, 0, 0, 0, 2, 0, 0, 0, 0, 0]"] ;
26 -> 194 ;
195 [label="gini = 0.0\nsamples = 2\nvalue = [0, 0, 0, 0, 0, 2, 0, 0, 0, 0, 0, 0, 0, 0, 0]"] ;
25 -> 195 ;
196 [label="X[18318] <= -0.0932\ngini = 0.6281\nsamples = 11\nvalue = [0, 6, 0, 1, 0, 0, 2, 0, 0, 0, 0, 0, 0, 0, 2]"] ;
24 -> 196 ;
197 [label="X[877] <= -0.2079\ngini = 0.4938\nsamples = 9\nvalue = [0, 6, 0, 1, 0, 0, 2, 0, 0, 0, 0, 0, 0, 0, 0]"] ;
196 -> 197 ;
198 [label="X[24396] <= 2.6974\ngini = 0.2449\nsamples = 7\nvalue = [0, 6, 0, 1, 0, 0, 0, 0, 0, 0, 0, 0, 0, 0, 0]"] ;
197 -> 198 ;
199 [label="gini = 0.0\nsamples = 6\nvalue = [0, 6, 0, 0, 0, 0, 0, 0, 0, 0, 0, 0, 0, 0, 0]"] ;
198 -> 199 ;
200 [label="gini = 0.0\nsamples = 1\nvalue = [0, 0, 0, 1, 0, 0, 0, 0, 0, 0, 0, 0, 0, 0, 0]"] ;
198 -> 200 ;
201 [label="gini = 0.0\nsamples = 2\nvalue = [0, 0, 0, 0, 0, 0, 2, 0, 0, 0, 0, 0, 0, 0, 0]"] ;
197 -> 201 ;
202 [label="gini = 0.0\nsamples = 2\nvalue = [0, 0, 0, 0, 0, 0, 0, 0, 0, 0, 0, 0, 0, 0, 2]"] ;
196 -> 202 ;
203 [label="gini = 0.0\nsamples = 3\nvalue = [0, 3, 0, 0, 0, 0, 0, 0, 0, 0, 0, 0, 0, 0, 0]"] ;
23 -> 203 ;
204 [label="X[64238] <= 0.5183\ngini = 0.8704\nsamples = 29\nvalue = [1, 0, 0, 1, 1, 3, 3, 3, 6, 2, 1, 1, 1, 0, 6]"] ;
22 -> 204 ;
205 [label="X[38667] <= -0.166\ngini = 0.856\nsamples = 27\nvalue = [1, 0, 0, 1, 1, 3, 3, 3, 6, 0, 1, 1, 1, 0, 6]"] ;
204 -> 205 ;
206 [label="X[75789] <= -0.1705\ngini = 0.8448\nsamples = 25\nvalue = [1, 0, 0, 1, 1, 3, 1, 3, 6, 0, 1, 1, 1, 0, 6]"] ;
205 -> 206 ;
207 [label="X[75555] <= -0.2027\ngini = 0.8318\nsamples = 23\nvalue = [1, 0, 0, 1, 1, 3, 1, 1, 6, 0, 1, 1, 1, 0, 6]"] ;
206 -> 207 ;
208 [label="X[28068] <= -0.1932\ngini = 0.8163\nsamples = 21\nvalue = [1, 0, 0, 1, 1, 1, 1, 1, 6, 0, 1, 1, 1, 0, 6]"] ;
207 -> 208 ;
209 [label="X[67541] <= -0.1747\ngini = 0.6735\nsamples = 14\nvalue = [0, 0, 0, 0, 0, 1, 0, 1, 6, 0, 0, 1, 0, 0, 5]"] ;
208 -> 209 ;
210 [label="X[28094] <= -0.1385\ngini = 0.5\nsamples = 2\nvalue = [0, 0, 0, 0, 0, 1, 0, 1, 0, 0, 0, 0, 0, 0, 0]"] ;
209 -> 210 ;
211 [label="gini = 0.0\nsamples = 1\nvalue = [0, 0, 0, 0, 0, 0, 0, 1, 0, 0, 0, 0, 0, 0, 0]"] ;
210 -> 211 ;
212 [label="gini = 0.0\nsamples = 1\nvalue = [0, 0, 0, 0, 0, 1, 0, 0, 0, 0, 0, 0, 0, 0, 0]"] ;
210 -> 212 ;
213 [label="X[38631] <= -0.1584\ngini = 0.5694\nsamples = 12\nvalue = [0, 0, 0, 0, 0, 0, 0, 0, 6, 0, 0, 1, 0, 0, 5]"] ;
209 -> 213 ;
214 [label="X[67541] <= -0.1744\ngini = 0.4444\nsamples = 9\nvalue = [0, 0, 0, 0, 0, 0, 0, 0, 6, 0, 0, 0, 0, 0, 3]"] ;
213 -> 214 ;
215 [label="gini = 0.0\nsamples = 5\nvalue = [0, 0, 0, 0, 0, 0, 0, 0, 5, 0, 0, 0, 0, 0, 0]"] ;
214 -> 215 ;
216 [label="X[98665] <= 0.0406\ngini = 0.375\nsamples = 4\nvalue = [0, 0, 0, 0, 0, 0, 0, 0, 1, 0, 0, 0, 0, 0, 3]"] ;
214 -> 216 ;
217 [label="gini = 0.0\nsamples = 3\nvalue = [0, 0, 0, 0, 0, 0, 0, 0, 0, 0, 0, 0, 0, 0, 3]"] ;
216 -> 217 ;
218 [label="gini = 0.0\nsamples = 1\nvalue = [0, 0, 0, 0, 0, 0, 0, 0, 1, 0, 0, 0, 0, 0, 0]"] ;
216 -> 218 ;
219 [label="X[75109] <= -0.1339\ngini = 0.4444\nsamples = 3\nvalue = [0, 0, 0, 0, 0, 0, 0, 0, 0, 0, 0, 1, 0, 0, 2]"] ;
213 -> 219 ;
220 [label="gini = 0.0\nsamples = 2\nvalue = [0, 0, 0, 0, 0, 0, 0, 0, 0, 0, 0, 0, 0, 0, 2]"] ;
219 -> 220 ;
221 [label="gini = 0.0\nsamples = 1\nvalue = [0, 0, 0, 0, 0, 0, 0, 0, 0, 0, 0, 1, 0, 0, 0]"] ;
219 -> 221 ;
222 [label="X[27828] <= -0.0893\ngini = 0.8571\nsamples = 7\nvalue = [1, 0, 0, 1, 1, 0, 1, 0, 0, 0, 1, 0, 1, 0, 1]"] ;
208 -> 222 ;
223 [label="X[4771] <= 0.0222\ngini = 0.75\nsamples = 4\nvalue = [1, 0, 0, 1, 0, 0, 0, 0, 0, 0, 1, 0, 1, 0, 0]"] ;
222 -> 223 ;
224 [label="X[11539] <= 0.6383\ngini = 0.6667\nsamples = 3\nvalue = [1, 0, 0, 1, 0, 0, 0, 0, 0, 0, 0, 0, 1, 0, 0]"] ;
223 -> 224 ;
225 [label="X[47106] <= -0.1561\ngini = 0.5\nsamples = 2\nvalue = [0, 0, 0, 1, 0, 0, 0, 0, 0, 0, 0, 0, 1, 0, 0]"] ;
224 -> 225 ;
226 [label="gini = 0.0\nsamples = 1\nvalue = [0, 0, 0, 0, 0, 0, 0, 0, 0, 0, 0, 0, 1, 0, 0]"] ;
225 -> 226 ;
227 [label="gini = 0.0\nsamples = 1\nvalue = [0, 0, 0, 1, 0, 0, 0, 0, 0, 0, 0, 0, 0, 0, 0]"] ;
225 -> 227 ;
228 [label="gini = 0.0\nsamples = 1\nvalue = [1, 0, 0, 0, 0, 0, 0, 0, 0, 0, 0, 0, 0, 0, 0]"] ;
224 -> 228 ;
229 [label="gini = 0.0\nsamples = 1\nvalue = [0, 0, 0, 0, 0, 0, 0, 0, 0, 0, 1, 0, 0, 0, 0]"] ;
223 -> 229 ;
230 [label="X[48046] <= 0.4584\ngini = 0.6667\nsamples = 3\nvalue = [0, 0, 0, 0, 1, 0, 1, 0, 0, 0, 0, 0, 0, 0, 1]"] ;
222 -> 230 ;
231 [label="X[82347] <= 0.0624\ngini = 0.5\nsamples = 2\nvalue = [0, 0, 0, 0, 1, 0, 1, 0, 0, 0, 0, 0, 0, 0, 0]"] ;
230 -> 231 ;
232 [label="gini = 0.0\nsamples = 1\nvalue = [0, 0, 0, 0, 0, 0, 1, 0, 0, 0, 0, 0, 0, 0, 0]"] ;
231 -> 232 ;
233 [label="gini = 0.0\nsamples = 1\nvalue = [0, 0, 0, 0, 1, 0, 0, 0, 0, 0, 0, 0, 0, 0, 0]"] ;
231 -> 233 ;
234 [label="gini = 0.0\nsamples = 1\nvalue = [0, 0, 0, 0, 0, 0, 0, 0, 0, 0, 0, 0, 0, 0, 1]"] ;
230 -> 234 ;
235 [label="gini = 0.0\nsamples = 2\nvalue = [0, 0, 0, 0, 0, 2, 0, 0, 0, 0, 0, 0, 0, 0, 0]"] ;
207 -> 235 ;
236 [label="gini = 0.0\nsamples = 2\nvalue = [0, 0, 0, 0, 0, 0, 0, 2, 0, 0, 0, 0, 0, 0, 0]"] ;
206 -> 236 ;
237 [label="gini = 0.0\nsamples = 2\nvalue = [0, 0, 0, 0, 0, 0, 2, 0, 0, 0, 0, 0, 0, 0, 0]"] ;
205 -> 237 ;
238 [label="gini = 0.0\nsamples = 2\nvalue = [0, 0, 0, 0, 0, 0, 0, 0, 0, 2, 0, 0, 0, 0, 0]"] ;
204 -> 238 ;
239 [label="gini = 0.0\nsamples = 4\nvalue = [0, 0, 0, 0, 0, 0, 0, 0, 0, 0, 0, 0, 0, 0, 4]"] ;
21 -> 239 ;
240 [label="gini = 0.0\nsamples = 3\nvalue = [0, 3, 0, 0, 0, 0, 0, 0, 0, 0, 0, 0, 0, 0, 0]"] ;
20 -> 240 ;
241 [label="gini = 0.0\nsamples = 3\nvalue = [0, 3, 0, 0, 0, 0, 0, 0, 0, 0, 0, 0, 0, 0, 0]"] ;
19 -> 241 ;
242 [label="X[66910] <= -0.1294\ngini = 0.5\nsamples = 6\nvalue = [0, 0, 0, 1, 0, 0, 4, 0, 1, 0, 0, 0, 0, 0, 0]"] ;
18 -> 242 ;
243 [label="gini = 0.0\nsamples = 4\nvalue = [0, 0, 0, 0, 0, 0, 4, 0, 0, 0, 0, 0, 0, 0, 0]"] ;
242 -> 243 ;
244 [label="X[72440] <= 1.0073\ngini = 0.5\nsamples = 2\nvalue = [0, 0, 0, 1, 0, 0, 0, 0, 1, 0, 0, 0, 0, 0, 0]"] ;
242 -> 244 ;
245 [label="gini = 0.0\nsamples = 1\nvalue = [0, 0, 0, 1, 0, 0, 0, 0, 0, 0, 0, 0, 0, 0, 0]"] ;
244 -> 245 ;
246 [label="gini = 0.0\nsamples = 1\nvalue = [0, 0, 0, 0, 0, 0, 0, 0, 1, 0, 0, 0, 0, 0, 0]"] ;
244 -> 246 ;
247 [label="gini = 0.0\nsamples = 4\nvalue = [0, 4, 0, 0, 0, 0, 0, 0, 0, 0, 0, 0, 0, 0, 0]"] ;
17 -> 247 ;
248 [label="X[90441] <= -0.179\ngini = 0.6531\nsamples = 7\nvalue = [0, 0, 3, 2, 2, 0, 0, 0, 0, 0, 0, 0, 0, 0, 0]"] ;
16 -> 248 ;
249 [label="X[18149] <= -0.1654\ngini = 0.48\nsamples = 5\nvalue = [0, 0, 3, 2, 0, 0, 0, 0, 0, 0, 0, 0, 0, 0, 0]"] ;
248 -> 249 ;
250 [label="X[90202] <= -0.1677\ngini = 0.4444\nsamples = 3\nvalue = [0, 0, 1, 2, 0, 0, 0, 0, 0, 0, 0, 0, 0, 0, 0]"] ;
249 -> 250 ;
251 [label="gini = 0.0\nsamples = 2\nvalue = [0, 0, 0, 2, 0, 0, 0, 0, 0, 0, 0, 0, 0, 0, 0]"] ;
250 -> 251 ;
252 [label="gini = 0.0\nsamples = 1\nvalue = [0, 0, 1, 0, 0, 0, 0, 0, 0, 0, 0, 0, 0, 0, 0]"] ;
250 -> 252 ;
253 [label="gini = 0.0\nsamples = 2\nvalue = [0, 0, 2, 0, 0, 0, 0, 0, 0, 0, 0, 0, 0, 0, 0]"] ;
249 -> 253 ;
254 [label="gini = 0.0\nsamples = 2\nvalue = [0, 0, 0, 0, 2, 0, 0, 0, 0, 0, 0, 0, 0, 0, 0]"] ;
248 -> 254 ;
255 [label="gini = 0.0\nsamples = 3\nvalue = [0, 0, 0, 0, 0, 3, 0, 0, 0, 0, 0, 0, 0, 0, 0]"] ;
15 -> 255 ;
256 [label="gini = 0.0\nsamples = 3\nvalue = [0, 0, 0, 0, 0, 3, 0, 0, 0, 0, 0, 0, 0, 0, 0]"] ;
14 -> 256 ;
257 [label="gini = 0.0\nsamples = 3\nvalue = [0, 0, 0, 0, 0, 0, 0, 0, 3, 0, 0, 0, 0, 0, 0]"] ;
13 -> 257 ;
258 [label="gini = 0.0\nsamples = 4\nvalue = [0, 0, 0, 0, 0, 4, 0, 0, 0, 0, 0, 0, 0, 0, 0]"] ;
12 -> 258 ;
259 [label="gini = 0.0\nsamples = 5\nvalue = [0, 5, 0, 0, 0, 0, 0, 0, 0, 0, 0, 0, 0, 0, 0]"] ;
11 -> 259 ;
260 [label="X[3784] <= -0.1448\ngini = 0.5124\nsamples = 11\nvalue = [0, 0, 0, 0, 0, 0, 0, 0, 7, 0, 0, 1, 0, 0, 3]"] ;
10 -> 260 ;
261 [label="X[90831] <= -0.1794\ngini = 0.3704\nsamples = 9\nvalue = [0, 0, 0, 0, 0, 0, 0, 0, 7, 0, 0, 1, 0, 0, 1]"] ;
260 -> 261 ;
262 [label="gini = 0.0\nsamples = 7\nvalue = [0, 0, 0, 0, 0, 0, 0, 0, 7, 0, 0, 0, 0, 0, 0]"] ;
261 -> 262 ;
263 [label="X[76532] <= 0.2356\ngini = 0.5\nsamples = 2\nvalue = [0, 0, 0, 0, 0, 0, 0, 0, 0, 0, 0, 1, 0, 0, 1]"] ;
261 -> 263 ;
264 [label="gini = 0.0\nsamples = 1\nvalue = [0, 0, 0, 0, 0, 0, 0, 0, 0, 0, 0, 0, 0, 0, 1]"] ;
263 -> 264 ;
265 [label="gini = 0.0\nsamples = 1\nvalue = [0, 0, 0, 0, 0, 0, 0, 0, 0, 0, 0, 1, 0, 0, 0]"] ;
263 -> 265 ;
266 [label="gini = 0.0\nsamples = 2\nvalue = [0, 0, 0, 0, 0, 0, 0, 0, 0, 0, 0, 0, 0, 0, 2]"] ;
260 -> 266 ;
267 [label="X[95016] <= -0.1536\ngini = 0.3704\nsamples = 9\nvalue = [0, 7, 0, 0, 0, 0, 1, 0, 0, 1, 0, 0, 0, 0, 0]"] ;
9 -> 267 ;
268 [label="gini = 0.0\nsamples = 7\nvalue = [0, 7, 0, 0, 0, 0, 0, 0, 0, 0, 0, 0, 0, 0, 0]"] ;
267 -> 268 ;
269 [label="X[163] <= 0.1367\ngini = 0.5\nsamples = 2\nvalue = [0, 0, 0, 0, 0, 0, 1, 0, 0, 1, 0, 0, 0, 0, 0]"] ;
267 -> 269 ;
270 [label="gini = 0.0\nsamples = 1\nvalue = [0, 0, 0, 0, 0, 0, 1, 0, 0, 0, 0, 0, 0, 0, 0]"] ;
269 -> 270 ;
271 [label="gini = 0.0\nsamples = 1\nvalue = [0, 0, 0, 0, 0, 0, 0, 0, 0, 1, 0, 0, 0, 0, 0]"] ;
269 -> 271 ;
272 [label="X[49077] <= -0.0786\ngini = 0.1975\nsamples = 9\nvalue = [0, 0, 0, 8, 0, 0, 0, 0, 0, 0, 0, 0, 0, 0, 1]"] ;
8 -> 272 ;
273 [label="gini = 0.0\nsamples = 8\nvalue = [0, 0, 0, 8, 0, 0, 0, 0, 0, 0, 0, 0, 0, 0, 0]"] ;
272 -> 273 ;
274 [label="gini = 0.0\nsamples = 1\nvalue = [0, 0, 0, 0, 0, 0, 0, 0, 0, 0, 0, 0, 0, 0, 1]"] ;
272 -> 274 ;
275 [label="X[98237] <= -0.1676\ngini = 0.7804\nsamples = 35\nvalue = [0, 10, 0, 0, 3, 0, 1, 1, 12, 1, 1, 2, 2, 0\n2]"] ;
7 -> 275 ;
276 [label="X[13591] <= -0.1983\ngini = 0.6704\nsamples = 19\nvalue = [0, 10, 0, 0, 3, 0, 1, 0, 2, 0, 0, 2, 1, 0\n0]"] ;
275 -> 276 ;
277 [label="X[64165] <= -0.1186\ngini = 0.3905\nsamples = 13\nvalue = [0, 10, 0, 0, 0, 0, 1, 0, 1, 0, 0, 0, 1, 0\n0]"] ;
276 -> 277 ;
278 [label="X[58676] <= -0.1173\ngini = 0.1653\nsamples = 11\nvalue = [0, 10, 0, 0, 0, 0, 1, 0, 0, 0, 0, 0, 0, 0\n0]"] ;
277 -> 278 ;
279 [label="gini = 0.0\nsamples = 10\nvalue = [0, 10, 0, 0, 0, 0, 0, 0, 0, 0, 0, 0, 0, 0\n0]"] ;
278 -> 279 ;
280 [label="gini = 0.0\nsamples = 1\nvalue = [0, 0, 0, 0, 0, 0, 1, 0, 0, 0, 0, 0, 0, 0, 0]"] ;
278 -> 280 ;
281 [label="X[41099] <= 0.0548\ngini = 0.5\nsamples = 2\nvalue = [0, 0, 0, 0, 0, 0, 0, 0, 1, 0, 0, 0, 1, 0, 0]"] ;
277 -> 281 ;
282 [label="gini = 0.0\nsamples = 1\nvalue = [0, 0, 0, 0, 0, 0, 0, 0, 1, 0, 0, 0, 0, 0, 0]"] ;
281 -> 282 ;
283 [label="gini = 0.0\nsamples = 1\nvalue = [0, 0, 0, 0, 0, 0, 0, 0, 0, 0, 0, 0, 1, 0, 0]"] ;
281 -> 283 ;
284 [label="X[75978] <= -0.1199\ngini = 0.6111\nsamples = 6\nvalue = [0, 0, 0, 0, 3, 0, 0, 0, 1, 0, 0, 2, 0, 0, 0]"] ;
276 -> 284 ;
285 [label="gini = 0.0\nsamples = 3\nvalue = [0, 0, 0, 0, 3, 0, 0, 0, 0, 0, 0, 0, 0, 0, 0]"] ;
284 -> 285 ;
286 [label="X[79550] <= -0.2142\ngini = 0.4444\nsamples = 3\nvalue = [0, 0, 0, 0, 0, 0, 0, 0, 1, 0, 0, 2, 0, 0, 0]"] ;
284 -> 286 ;
287 [label="gini = 0.0\nsamples = 2\nvalue = [0, 0, 0, 0, 0, 0, 0, 0, 0, 0, 0, 2, 0, 0, 0]"] ;
286 -> 287 ;
288 [label="gini = 0.0\nsamples = 1\nvalue = [0, 0, 0, 0, 0, 0, 0, 0, 1, 0, 0, 0, 0, 0, 0]"] ;
286 -> 288 ;
289 [label="X[98526] <= -0.1822\ngini = 0.5781\nsamples = 16\nvalue = [0, 0, 0, 0, 0, 0, 0, 1, 10, 1, 1, 0, 1, 0\n2]"] ;
275 -> 289 ;
290 [label="X[95354] <= 0.6989\ngini = 0.1653\nsamples = 11\nvalue = [0, 0, 0, 0, 0, 0, 0, 0, 10, 0, 0, 0, 0, 0\n1]"] ;
289 -> 290 ;
291 [label="gini = 0.0\nsamples = 10\nvalue = [0, 0, 0, 0, 0, 0, 0, 0, 10, 0, 0, 0, 0, 0\n0]"] ;
290 -> 291 ;
292 [label="gini = 0.0\nsamples = 1\nvalue = [0, 0, 0, 0, 0, 0, 0, 0, 0, 0, 0, 0, 0, 0, 1]"] ;
290 -> 292 ;
293 [label="X[92439] <= 0.2048\ngini = 0.8\nsamples = 5\nvalue = [0, 0, 0, 0, 0, 0, 0, 1, 0, 1, 1, 0, 1, 0, 1]"] ;
289 -> 293 ;
294 [label="X[22266] <= 0.0172\ngini = 0.75\nsamples = 4\nvalue = [0, 0, 0, 0, 0, 0, 0, 1, 0, 0, 1, 0, 1, 0, 1]"] ;
293 -> 294 ;
295 [label="X[71705] <= 0.3864\ngini = 0.6667\nsamples = 3\nvalue = [0, 0, 0, 0, 0, 0, 0, 0, 0, 0, 1, 0, 1, 0, 1]"] ;
294 -> 295 ;
296 [label="X[42802] <= 0.2675\ngini = 0.5\nsamples = 2\nvalue = [0, 0, 0, 0, 0, 0, 0, 0, 0, 0, 1, 0, 0, 0, 1]"] ;
295 -> 296 ;
297 [label="gini = 0.0\nsamples = 1\nvalue = [0, 0, 0, 0, 0, 0, 0, 0, 0, 0, 0, 0, 0, 0, 1]"] ;
296 -> 297 ;
298 [label="gini = 0.0\nsamples = 1\nvalue = [0, 0, 0, 0, 0, 0, 0, 0, 0, 0, 1, 0, 0, 0, 0]"] ;
296 -> 298 ;
299 [label="gini = 0.0\nsamples = 1\nvalue = [0, 0, 0, 0, 0, 0, 0, 0, 0, 0, 0, 0, 1, 0, 0]"] ;
295 -> 299 ;
300 [label="gini = 0.0\nsamples = 1\nvalue = [0, 0, 0, 0, 0, 0, 0, 1, 0, 0, 0, 0, 0, 0, 0]"] ;
294 -> 300 ;
301 [label="gini = 0.0\nsamples = 1\nvalue = [0, 0, 0, 0, 0, 0, 0, 0, 0, 1, 0, 0, 0, 0, 0]"] ;
293 -> 301 ;
302 [label="X[90831] <= -0.1732\ngini = 0.314\nsamples = 11\nvalue = [0, 9, 0, 0, 0, 1, 0, 1, 0, 0, 0, 0, 0, 0, 0]"] ;
6 -> 302 ;
303 [label="gini = 0.0\nsamples = 9\nvalue = [0, 9, 0, 0, 0, 0, 0, 0, 0, 0, 0, 0, 0, 0, 0]"] ;
302 -> 303 ;
304 [label="X[73833] <= -0.0333\ngini = 0.5\nsamples = 2\nvalue = [0, 0, 0, 0, 0, 1, 0, 1, 0, 0, 0, 0, 0, 0, 0]"] ;
302 -> 304 ;
305 [label="gini = 0.0\nsamples = 1\nvalue = [0, 0, 0, 0, 0, 1, 0, 0, 0, 0, 0, 0, 0, 0, 0]"] ;
304 -> 305 ;
306 [label="gini = 0.0\nsamples = 1\nvalue = [0, 0, 0, 0, 0, 0, 0, 1, 0, 0, 0, 0, 0, 0, 0]"] ;
304 -> 306 ;
307 [label="gini = 0.0\nsamples = 6\nvalue = [0, 0, 0, 0, 0, 0, 6, 0, 0, 0, 0, 0, 0, 0, 0]"] ;
5 -> 307 ;
308 [label="X[62552] <= -0.0655\ngini = 0.2188\nsamples = 8\nvalue = [7, 0, 0, 0, 0, 0, 0, 0, 1, 0, 0, 0, 0, 0, 0]"] ;
4 -> 308 ;
309 [label="gini = 0.0\nsamples = 7\nvalue = [7, 0, 0, 0, 0, 0, 0, 0, 0, 0, 0, 0, 0, 0, 0]"] ;
308 -> 309 ;
310 [label="gini = 0.0\nsamples = 1\nvalue = [0, 0, 0, 0, 0, 0, 0, 0, 1, 0, 0, 0, 0, 0, 0]"] ;
308 -> 310 ;
311 [label="X[68817] <= -0.1498\ngini = 0.4706\nsamples = 17\nvalue = [0, 2, 0, 0, 1, 12, 0, 0, 2, 0, 0, 0, 0, 0\n0]"] ;
3 -> 311 ;
312 [label="X[57821] <= -0.1912\ngini = 0.3378\nsamples = 15\nvalue = [0, 0, 0, 0, 1, 12, 0, 0, 2, 0, 0, 0, 0, 0\n0]"] ;
311 -> 312 ;
313 [label="X[92631] <= -0.1018\ngini = 0.142\nsamples = 13\nvalue = [0, 0, 0, 0, 0, 12, 0, 0, 1, 0, 0, 0, 0, 0\n0]"] ;
312 -> 313 ;
314 [label="gini = 0.0\nsamples = 12\nvalue = [0, 0, 0, 0, 0, 12, 0, 0, 0, 0, 0, 0, 0, 0\n0]"] ;
313 -> 314 ;
315 [label="gini = 0.0\nsamples = 1\nvalue = [0, 0, 0, 0, 0, 0, 0, 0, 1, 0, 0, 0, 0, 0, 0]"] ;
313 -> 315 ;
316 [label="X[18149] <= -0.1654\ngini = 0.5\nsamples = 2\nvalue = [0, 0, 0, 0, 1, 0, 0, 0, 1, 0, 0, 0, 0, 0, 0]"] ;
312 -> 316 ;
317 [label="gini = 0.0\nsamples = 1\nvalue = [0, 0, 0, 0, 0, 0, 0, 0, 1, 0, 0, 0, 0, 0, 0]"] ;
316 -> 317 ;
318 [label="gini = 0.0\nsamples = 1\nvalue = [0, 0, 0, 0, 1, 0, 0, 0, 0, 0, 0, 0, 0, 0, 0]"] ;
316 -> 318 ;
319 [label="gini = 0.0\nsamples = 2\nvalue = [0, 2, 0, 0, 0, 0, 0, 0, 0, 0, 0, 0, 0, 0, 0]"] ;
311 -> 319 ;
320 [label="gini = 0.0\nsamples = 11\nvalue = [0, 0, 0, 0, 0, 0, 0, 0, 11, 0, 0, 0, 0, 0\n0]"] ;
2 -> 320 ;
321 [label="X[28068] <= -0.1928\ngini = 0.8424\nsamples = 276\nvalue = [11, 23, 3, 8, 15, 73, 9, 14, 68, 0, 23, 12, 11\n6, 0]"] ;
1 -> 321 ;
322 [label="X[57811] <= -0.1964\ngini = 0.4362\nsamples = 66\nvalue = [1, 1, 0, 0, 1, 48, 2, 0, 12, 0, 0, 1, 0, 0\n0]"] ;
321 -> 322 ;
323 [label="X[95741] <= -0.1627\ngini = 0.3444\nsamples = 60\nvalue = [0, 1, 0, 0, 1, 48, 2, 0, 7, 0, 0, 1, 0, 0\n0]"] ;
322 -> 323 ;
324 [label="X[27215] <= -0.1349\ngini = 0.2838\nsamples = 57\nvalue = [0, 1, 0, 0, 1, 48, 2, 0, 4, 0, 0, 1, 0, 0\n0]"] ;
323 -> 324 ;
325 [label="X[61647] <= -0.1748\ngini = 0.1737\nsamples = 53\nvalue = [0, 0, 0, 0, 1, 48, 0, 0, 4, 0, 0, 0, 0, 0\n0]"] ;
324 -> 325 ;
326 [label="X[64276] <= 2.5483\ngini = 0.1107\nsamples = 51\nvalue = [0, 0, 0, 0, 0, 48, 0, 0, 3, 0, 0, 0, 0, 0\n0]"] ;
325 -> 326 ;
327 [label="X[57742] <= -0.0844\ngini = 0.0768\nsamples = 50\nvalue = [0, 0, 0, 0, 0, 48, 0, 0, 2, 0, 0, 0, 0, 0\n0]"] ;
326 -> 327 ;
328 [label="X[31098] <= 0.0357\ngini = 0.04\nsamples = 49\nvalue = [0, 0, 0, 0, 0, 48, 0, 0, 1, 0, 0, 0, 0, 0\n0]"] ;
327 -> 328 ;
329 [label="gini = 0.0\nsamples = 48\nvalue = [0, 0, 0, 0, 0, 48, 0, 0, 0, 0, 0, 0, 0, 0\n0]"] ;
328 -> 329 ;
330 [label="gini = 0.0\nsamples = 1\nvalue = [0, 0, 0, 0, 0, 0, 0, 0, 1, 0, 0, 0, 0, 0, 0]"] ;
328 -> 330 ;
331 [label="gini = 0.0\nsamples = 1\nvalue = [0, 0, 0, 0, 0, 0, 0, 0, 1, 0, 0, 0, 0, 0, 0]"] ;
327 -> 331 ;
332 [label="gini = 0.0\nsamples = 1\nvalue = [0, 0, 0, 0, 0, 0, 0, 0, 1, 0, 0, 0, 0, 0, 0]"] ;
326 -> 332 ;
333 [label="X[98535] <= -0.1271\ngini = 0.5\nsamples = 2\nvalue = [0, 0, 0, 0, 1, 0, 0, 0, 1, 0, 0, 0, 0, 0, 0]"] ;
325 -> 333 ;
334 [label="gini = 0.0\nsamples = 1\nvalue = [0, 0, 0, 0, 0, 0, 0, 0, 1, 0, 0, 0, 0, 0, 0]"] ;
333 -> 334 ;
335 [label="gini = 0.0\nsamples = 1\nvalue = [0, 0, 0, 0, 1, 0, 0, 0, 0, 0, 0, 0, 0, 0, 0]"] ;
333 -> 335 ;
336 [label="X[88456] <= -0.0633\ngini = 0.625\nsamples = 4\nvalue = [0, 1, 0, 0, 0, 0, 2, 0, 0, 0, 0, 1, 0, 0, 0]"] ;
324 -> 336 ;
337 [label="X[71086] <= -0.1242\ngini = 0.5\nsamples = 2\nvalue = [0, 1, 0, 0, 0, 0, 0, 0, 0, 0, 0, 1, 0, 0, 0]"] ;
336 -> 337 ;
338 [label="gini = 0.0\nsamples = 1\nvalue = [0, 1, 0, 0, 0, 0, 0, 0, 0, 0, 0, 0, 0, 0, 0]"] ;
337 -> 338 ;
339 [label="gini = 0.0\nsamples = 1\nvalue = [0, 0, 0, 0, 0, 0, 0, 0, 0, 0, 0, 1, 0, 0, 0]"] ;
337 -> 339 ;
340 [label="gini = 0.0\nsamples = 2\nvalue = [0, 0, 0, 0, 0, 0, 2, 0, 0, 0, 0, 0, 0, 0, 0]"] ;
336 -> 340 ;
341 [label="gini = 0.0\nsamples = 3\nvalue = [0, 0, 0, 0, 0, 0, 0, 0, 3, 0, 0, 0, 0, 0, 0]"] ;
323 -> 341 ;
342 [label="X[46680] <= -0.0962\ngini = 0.2778\nsamples = 6\nvalue = [1, 0, 0, 0, 0, 0, 0, 0, 5, 0, 0, 0, 0, 0, 0]"] ;
322 -> 342 ;
343 [label="gini = 0.0\nsamples = 5\nvalue = [0, 0, 0, 0, 0, 0, 0, 0, 5, 0, 0, 0, 0, 0, 0]"] ;
342 -> 343 ;
344 [label="gini = 0.0\nsamples = 1\nvalue = [1, 0, 0, 0, 0, 0, 0, 0, 0, 0, 0, 0, 0, 0, 0]"] ;
342 -> 344 ;
345 [label="X[73319] <= 0.0618\ngini = 0.8715\nsamples = 210\nvalue = [10, 22, 3, 8, 14, 25, 7, 14, 56, 0, 23, 11, 11\n6, 0]"] ;
321 -> 345 ;
346 [label="X[84552] <= 0.0516\ngini = 0.8616\nsamples = 199\nvalue = [10, 22, 3, 8, 14, 25, 7, 3, 56, 0, 23, 11, 11\n6, 0]"] ;
345 -> 346 ;
347 [label="X[59708] <= 0.2915\ngini = 0.8562\nsamples = 187\nvalue = [10, 22, 3, 8, 14, 14, 7, 3, 56, 0, 23, 10, 11\n6, 0]"] ;
346 -> 347 ;
348 [label="X[57192] <= 2.5483\ngini = 0.8479\nsamples = 174\nvalue = [10, 22, 3, 8, 14, 14, 7, 3, 56, 0, 12, 10, 9\n6, 0]"] ;
347 -> 348 ;
349 [label="X[510] <= -0.0718\ngini = 0.8364\nsamples = 166\nvalue = [2, 22, 3, 8, 14, 14, 7, 3, 56, 0, 12, 10, 9\n6, 0]"] ;
348 -> 349 ;
350 [label="X[85915] <= 0.1448\ngini = 0.8119\nsamples = 152\nvalue = [2, 22, 3, 7, 13, 14, 7, 3, 56, 0, 12, 0, 9, 4\n0]"] ;
349 -> 350 ;
351 [label="X[95755] <= -0.109\ngini = 0.7974\nsamples = 144\nvalue = [2, 22, 3, 7, 5, 14, 7, 3, 56, 0, 12, 0, 9, 4\n0]"] ;
350 -> 351 ;
352 [label="X[39011] <= 0.039\ngini = 0.8485\nsamples = 115\nvalue = [2, 22, 3, 7, 5, 14, 7, 3, 32, 0, 9, 0, 8, 3\n0]"] ;
351 -> 352 ;
353 [label="X[71362] <= 2.5071\ngini = 0.8401\nsamples = 99\nvalue = [2, 9, 3, 5, 4, 14, 7, 3, 32, 0, 9, 0, 8, 3\n0]"] ;
352 -> 353 ;
354 [label="X[76438] <= -0.2243\ngini = 0.8244\nsamples = 93\nvalue = [2, 9, 3, 5, 4, 14, 1, 3, 32, 0, 9, 0, 8, 3\n0]"] ;
353 -> 354 ;
355 [label="X[87862] <= 0.4052\ngini = 0.7619\nsamples = 73\nvalue = [2, 9, 2, 1, 4, 7, 0, 1, 32, 0, 8, 0, 4, 3\n0]"] ;
354 -> 355 ;
356 [label="X[627] <= -0.1208\ngini = 0.7452\nsamples = 69\nvalue = [2, 5, 2, 1, 4, 7, 0, 1, 32, 0, 8, 0, 4, 3\n0]"] ;
355 -> 356 ;
357 [label="X[22348] <= -0.0398\ngini = 0.7095\nsamples = 63\nvalue = [2, 5, 2, 1, 2, 7, 0, 1, 32, 0, 4, 0, 4, 3\n0]"] ;
356 -> 357 ;
358 [label="X[1130] <= -0.1484\ngini = 0.6839\nsamples = 60\nvalue = [2, 5, 2, 1, 2, 7, 0, 1, 32, 0, 4, 0, 1, 3\n0]"] ;
357 -> 358 ;
359 [label="X[98458] <= -0.09\ngini = 0.6102\nsamples = 53\nvalue = [2, 5, 1, 1, 0, 5, 0, 1, 32, 0, 2, 0, 1, 3\n0]"] ;
358 -> 359 ;
360 [label="X[96931] <= -0.1569\ngini = 0.5656\nsamples = 50\nvalue = [2, 5, 1, 1, 0, 5, 0, 1, 32, 0, 2, 0, 1, 0\n0]"] ;
359 -> 360 ;
361 [label="X[56336] <= -0.1539\ngini = 0.7243\nsamples = 27\nvalue = [1, 5, 1, 0, 0, 5, 0, 0, 12, 0, 2, 0, 1, 0\n0]"] ;
360 -> 361 ;
362 [label="X[88672] <= -0.2151\ngini = 0.6875\nsamples = 24\nvalue = [1, 2, 1, 0, 0, 5, 0, 0, 12, 0, 2, 0, 1, 0\n0]"] ;
361 -> 362 ;
363 [label="X[17293] <= -0.1203\ngini = 0.4028\nsamples = 12\nvalue = [0, 2, 0, 0, 0, 0, 0, 0, 9, 0, 0, 0, 1, 0, 0]"] ;
362 -> 363 ;
364 [label="X[53658] <= -0.1065\ngini = 0.18\nsamples = 10\nvalue = [0, 0, 0, 0, 0, 0, 0, 0, 9, 0, 0, 0, 1, 0, 0]"] ;
363 -> 364 ;
365 [label="gini = 0.0\nsamples = 9\nvalue = [0, 0, 0, 0, 0, 0, 0, 0, 9, 0, 0, 0, 0, 0, 0]"] ;
364 -> 365 ;
366 [label="gini = 0.0\nsamples = 1\nvalue = [0, 0, 0, 0, 0, 0, 0, 0, 0, 0, 0, 0, 1, 0, 0]"] ;
364 -> 366 ;
367 [label="gini = 0.0\nsamples = 2\nvalue = [0, 2, 0, 0, 0, 0, 0, 0, 0, 0, 0, 0, 0, 0, 0]"] ;
363 -> 367 ;
368 [label="X[23159] <= -0.1305\ngini = 0.7222\nsamples = 12\nvalue = [1, 0, 1, 0, 0, 5, 0, 0, 3, 0, 2, 0, 0, 0, 0]"] ;
362 -> 368 ;
369 [label="X[57906] <= -0.1423\ngini = 0.6173\nsamples = 9\nvalue = [1, 0, 1, 0, 0, 5, 0, 0, 0, 0, 2, 0, 0, 0, 0]"] ;
368 -> 369 ;
370 [label="X[89919] <= -0.0792\ngini = 0.2778\nsamples = 6\nvalue = [1, 0, 0, 0, 0, 5, 0, 0, 0, 0, 0, 0, 0, 0, 0]"] ;
369 -> 370 ;
371 [label="gini = 0.0\nsamples = 5\nvalue = [0, 0, 0, 0, 0, 5, 0, 0, 0, 0, 0, 0, 0, 0, 0]"] ;
370 -> 371 ;
372 [label="gini = 0.0\nsamples = 1\nvalue = [1, 0, 0, 0, 0, 0, 0, 0, 0, 0, 0, 0, 0, 0, 0]"] ;
370 -> 372 ;
373 [label="X[82117] <= 0.2397\ngini = 0.4444\nsamples = 3\nvalue = [0, 0, 1, 0, 0, 0, 0, 0, 0, 0, 2, 0, 0, 0, 0]"] ;
369 -> 373 ;
374 [label="gini = 0.0\nsamples = 2\nvalue = [0, 0, 0, 0, 0, 0, 0, 0, 0, 0, 2, 0, 0, 0, 0]"] ;
373 -> 374 ;
375 [label="gini = 0.0\nsamples = 1\nvalue = [0, 0, 1, 0, 0, 0, 0, 0, 0, 0, 0, 0, 0, 0, 0]"] ;
373 -> 375 ;
376 [label="gini = 0.0\nsamples = 3\nvalue = [0, 0, 0, 0, 0, 0, 0, 0, 3, 0, 0, 0, 0, 0, 0]"] ;
368 -> 376 ;
377 [label="gini = 0.0\nsamples = 3\nvalue = [0, 3, 0, 0, 0, 0, 0, 0, 0, 0, 0, 0, 0, 0, 0]"] ;
361 -> 377 ;
378 [label="X[52016] <= -0.0001\ngini = 0.2382\nsamples = 23\nvalue = [1, 0, 0, 1, 0, 0, 0, 1, 20, 0, 0, 0, 0, 0\n0]"] ;
360 -> 378 ;
379 [label="gini = 0.0\nsamples = 20\nvalue = [0, 0, 0, 0, 0, 0, 0, 0, 20, 0, 0, 0, 0, 0\n0]"] ;
378 -> 379 ;
380 [label="X[12823] <= -0.1008\ngini = 0.6667\nsamples = 3\nvalue = [1, 0, 0, 1, 0, 0, 0, 1, 0, 0, 0, 0, 0, 0, 0]"] ;
378 -> 380 ;
381 [label="gini = 0.0\nsamples = 1\nvalue = [0, 0, 0, 0, 0, 0, 0, 1, 0, 0, 0, 0, 0, 0, 0]"] ;
380 -> 381 ;
382 [label="X[62404] <= -0.1468\ngini = 0.5\nsamples = 2\nvalue = [1, 0, 0, 1, 0, 0, 0, 0, 0, 0, 0, 0, 0, 0, 0]"] ;
380 -> 382 ;
383 [label="gini = 0.0\nsamples = 1\nvalue = [1, 0, 0, 0, 0, 0, 0, 0, 0, 0, 0, 0, 0, 0, 0]"] ;
382 -> 383 ;
384 [label="gini = 0.0\nsamples = 1\nvalue = [0, 0, 0, 1, 0, 0, 0, 0, 0, 0, 0, 0, 0, 0, 0]"] ;
382 -> 384 ;
385 [label="gini = 0.0\nsamples = 3\nvalue = [0, 0, 0, 0, 0, 0, 0, 0, 0, 0, 0, 0, 0, 3, 0]"] ;
359 -> 385 ;
386 [label="X[76893] <= -0.071\ngini = 0.7347\nsamples = 7\nvalue = [0, 0, 1, 0, 2, 2, 0, 0, 0, 0, 2, 0, 0, 0, 0]"] ;
358 -> 386 ;
387 [label="X[18416] <= -0.0558\ngini = 0.64\nsamples = 5\nvalue = [0, 0, 1, 0, 2, 2, 0, 0, 0, 0, 0, 0, 0, 0, 0]"] ;
386 -> 387 ;
388 [label="X[7788] <= 2.308\ngini = 0.4444\nsamples = 3\nvalue = [0, 0, 1, 0, 0, 2, 0, 0, 0, 0, 0, 0, 0, 0, 0]"] ;
387 -> 388 ;
389 [label="gini = 0.0\nsamples = 2\nvalue = [0, 0, 0, 0, 0, 2, 0, 0, 0, 0, 0, 0, 0, 0, 0]"] ;
388 -> 389 ;
390 [label="gini = 0.0\nsamples = 1\nvalue = [0, 0, 1, 0, 0, 0, 0, 0, 0, 0, 0, 0, 0, 0, 0]"] ;
388 -> 390 ;
391 [label="gini = 0.0\nsamples = 2\nvalue = [0, 0, 0, 0, 2, 0, 0, 0, 0, 0, 0, 0, 0, 0, 0]"] ;
387 -> 391 ;
392 [label="gini = 0.0\nsamples = 2\nvalue = [0, 0, 0, 0, 0, 0, 0, 0, 0, 0, 2, 0, 0, 0, 0]"] ;
386 -> 392 ;
393 [label="gini = 0.0\nsamples = 3\nvalue = [0, 0, 0, 0, 0, 0, 0, 0, 0, 0, 0, 0, 3, 0, 0]"] ;
357 -> 393 ;
394 [label="X[80549] <= -0.1129\ngini = 0.4444\nsamples = 6\nvalue = [0, 0, 0, 0, 2, 0, 0, 0, 0, 0, 4, 0, 0, 0, 0]"] ;
356 -> 394 ;
395 [label="gini = 0.0\nsamples = 4\nvalue = [0, 0, 0, 0, 0, 0, 0, 0, 0, 0, 4, 0, 0, 0, 0]"] ;
394 -> 395 ;
396 [label="gini = 0.0\nsamples = 2\nvalue = [0, 0, 0, 0, 2, 0, 0, 0, 0, 0, 0, 0, 0, 0, 0]"] ;
394 -> 396 ;
397 [label="gini = 0.0\nsamples = 4\nvalue = [0, 4, 0, 0, 0, 0, 0, 0, 0, 0, 0, 0, 0, 0, 0]"] ;
355 -> 397 ;
398 [label="X[18155] <= 0.0299\ngini = 0.78\nsamples = 20\nvalue = [0, 0, 1, 4, 0, 7, 1, 2, 0, 0, 1, 0, 4, 0, 0]"] ;
354 -> 398 ;
399 [label="X[65506] <= -0.1697\ngini = 0.7188\nsamples = 16\nvalue = [0, 0, 1, 0, 0, 7, 1, 2, 0, 0, 1, 0, 4, 0, 0]"] ;
398 -> 399 ;
400 [label="X[64528] <= 2.2443\ngini = 0.2188\nsamples = 8\nvalue = [0, 0, 0, 0, 0, 7, 1, 0, 0, 0, 0, 0, 0, 0, 0]"] ;
399 -> 400 ;
401 [label="gini = 0.0\nsamples = 7\nvalue = [0, 0, 0, 0, 0, 7, 0, 0, 0, 0, 0, 0, 0, 0, 0]"] ;
400 -> 401 ;
402 [label="gini = 0.0\nsamples = 1\nvalue = [0, 0, 0, 0, 0, 0, 1, 0, 0, 0, 0, 0, 0, 0, 0]"] ;
400 -> 402 ;
403 [label="X[27976] <= -0.1389\ngini = 0.6562\nsamples = 8\nvalue = [0, 0, 1, 0, 0, 0, 0, 2, 0, 0, 1, 0, 4, 0, 0]"] ;
399 -> 403 ;
404 [label="gini = 0.0\nsamples = 4\nvalue = [0, 0, 0, 0, 0, 0, 0, 0, 0, 0, 0, 0, 4, 0, 0]"] ;
403 -> 404 ;
405 [label="X[48050] <= -0.1281\ngini = 0.625\nsamples = 4\nvalue = [0, 0, 1, 0, 0, 0, 0, 2, 0, 0, 1, 0, 0, 0, 0]"] ;
403 -> 405 ;
406 [label="X[23124] <= 0.1237\ngini = 0.5\nsamples = 2\nvalue = [0, 0, 1, 0, 0, 0, 0, 0, 0, 0, 1, 0, 0, 0, 0]"] ;
405 -> 406 ;
407 [label="gini = 0.0\nsamples = 1\nvalue = [0, 0, 1, 0, 0, 0, 0, 0, 0, 0, 0, 0, 0, 0, 0]"] ;
406 -> 407 ;
408 [label="gini = 0.0\nsamples = 1\nvalue = [0, 0, 0, 0, 0, 0, 0, 0, 0, 0, 1, 0, 0, 0, 0]"] ;
406 -> 408 ;
409 [label="gini = 0.0\nsamples = 2\nvalue = [0, 0, 0, 0, 0, 0, 0, 2, 0, 0, 0, 0, 0, 0, 0]"] ;
405 -> 409 ;
410 [label="gini = 0.0\nsamples = 4\nvalue = [0, 0, 0, 4, 0, 0, 0, 0, 0, 0, 0, 0, 0, 0, 0]"] ;
398 -> 410 ;
411 [label="gini = 0.0\nsamples = 6\nvalue = [0, 0, 0, 0, 0, 0, 6, 0, 0, 0, 0, 0, 0, 0, 0]"] ;
353 -> 411 ;
412 [label="X[68772] <= -0.0645\ngini = 0.3203\nsamples = 16\nvalue = [0, 13, 0, 2, 1, 0, 0, 0, 0, 0, 0, 0, 0, 0\n0]"] ;
352 -> 412 ;
413 [label="gini = 0.0\nsamples = 13\nvalue = [0, 13, 0, 0, 0, 0, 0, 0, 0, 0, 0, 0, 0, 0\n0]"] ;
412 -> 413 ;
414 [label="X[15427] <= -0.0485\ngini = 0.4444\nsamples = 3\nvalue = [0, 0, 0, 2, 1, 0, 0, 0, 0, 0, 0, 0, 0, 0, 0]"] ;
412 -> 414 ;
415 [label="gini = 0.0\nsamples = 2\nvalue = [0, 0, 0, 2, 0, 0, 0, 0, 0, 0, 0, 0, 0, 0, 0]"] ;
414 -> 415 ;
416 [label="gini = 0.0\nsamples = 1\nvalue = [0, 0, 0, 0, 1, 0, 0, 0, 0, 0, 0, 0, 0, 0, 0]"] ;
414 -> 416 ;
417 [label="X[83477] <= 0.1689\ngini = 0.302\nsamples = 29\nvalue = [0, 0, 0, 0, 0, 0, 0, 0, 24, 0, 3, 0, 1, 1\n0]"] ;
351 -> 417 ;
418 [label="X[23835] <= 1.8866\ngini = 0.0799\nsamples = 24\nvalue = [0, 0, 0, 0, 0, 0, 0, 0, 23, 0, 0, 0, 0, 1\n0]"] ;
417 -> 418 ;
419 [label="gini = 0.0\nsamples = 23\nvalue = [0, 0, 0, 0, 0, 0, 0, 0, 23, 0, 0, 0, 0, 0\n0]"] ;
418 -> 419 ;
420 [label="gini = 0.0\nsamples = 1\nvalue = [0, 0, 0, 0, 0, 0, 0, 0, 0, 0, 0, 0, 0, 1, 0]"] ;
418 -> 420 ;
421 [label="X[75627] <= 0.1226\ngini = 0.56\nsamples = 5\nvalue = [0, 0, 0, 0, 0, 0, 0, 0, 1, 0, 3, 0, 1, 0, 0]"] ;
417 -> 421 ;
422 [label="gini = 0.0\nsamples = 3\nvalue = [0, 0, 0, 0, 0, 0, 0, 0, 0, 0, 3, 0, 0, 0, 0]"] ;
421 -> 422 ;
423 [label="X[89827] <= 2.0201\ngini = 0.5\nsamples = 2\nvalue = [0, 0, 0, 0, 0, 0, 0, 0, 1, 0, 0, 0, 1, 0, 0]"] ;
421 -> 423 ;
424 [label="gini = 0.0\nsamples = 1\nvalue = [0, 0, 0, 0, 0, 0, 0, 0, 1, 0, 0, 0, 0, 0, 0]"] ;
423 -> 424 ;
425 [label="gini = 0.0\nsamples = 1\nvalue = [0, 0, 0, 0, 0, 0, 0, 0, 0, 0, 0, 0, 1, 0, 0]"] ;
423 -> 425 ;
426 [label="gini = 0.0\nsamples = 8\nvalue = [0, 0, 0, 0, 8, 0, 0, 0, 0, 0, 0, 0, 0, 0, 0]"] ;
350 -> 426 ;
427 [label="X[34783] <= -0.0846\ngini = 0.4592\nsamples = 14\nvalue = [0, 0, 0, 1, 1, 0, 0, 0, 0, 0, 0, 10, 0, 2\n0]"] ;
349 -> 427 ;
428 [label="gini = 0.0\nsamples = 10\nvalue = [0, 0, 0, 0, 0, 0, 0, 0, 0, 0, 0, 10, 0, 0\n0]"] ;
427 -> 428 ;
429 [label="X[13642] <= 0.2096\ngini = 0.625\nsamples = 4\nvalue = [0, 0, 0, 1, 1, 0, 0, 0, 0, 0, 0, 0, 0, 2, 0]"] ;
427 -> 429 ;
430 [label="X[98601] <= 0.2582\ngini = 0.5\nsamples = 2\nvalue = [0, 0, 0, 1, 1, 0, 0, 0, 0, 0, 0, 0, 0, 0, 0]"] ;
429 -> 430 ;
431 [label="gini = 0.0\nsamples = 1\nvalue = [0, 0, 0, 0, 1, 0, 0, 0, 0, 0, 0, 0, 0, 0, 0]"] ;
430 -> 431 ;
432 [label="gini = 0.0\nsamples = 1\nvalue = [0, 0, 0, 1, 0, 0, 0, 0, 0, 0, 0, 0, 0, 0, 0]"] ;
430 -> 432 ;
433 [label="gini = 0.0\nsamples = 2\nvalue = [0, 0, 0, 0, 0, 0, 0, 0, 0, 0, 0, 0, 0, 2, 0]"] ;
429 -> 433 ;
434 [label="gini = 0.0\nsamples = 8\nvalue = [8, 0, 0, 0, 0, 0, 0, 0, 0, 0, 0, 0, 0, 0, 0]"] ;
348 -> 434 ;
435 [label="X[64346] <= -0.165\ngini = 0.2604\nsamples = 13\nvalue = [0, 0, 0, 0, 0, 0, 0, 0, 0, 0, 11, 0, 2, 0\n0]"] ;
347 -> 435 ;
436 [label="gini = 0.0\nsamples = 2\nvalue = [0, 0, 0, 0, 0, 0, 0, 0, 0, 0, 0, 0, 2, 0, 0]"] ;
435 -> 436 ;
437 [label="gini = 0.0\nsamples = 11\nvalue = [0, 0, 0, 0, 0, 0, 0, 0, 0, 0, 11, 0, 0, 0\n0]"] ;
435 -> 437 ;
438 [label="X[28434] <= 0.7248\ngini = 0.1528\nsamples = 12\nvalue = [0, 0, 0, 0, 0, 11, 0, 0, 0, 0, 0, 1, 0, 0\n0]"] ;
346 -> 438 ;
439 [label="gini = 0.0\nsamples = 11\nvalue = [0, 0, 0, 0, 0, 11, 0, 0, 0, 0, 0, 0, 0, 0\n0]"] ;
438 -> 439 ;
440 [label="gini = 0.0\nsamples = 1\nvalue = [0, 0, 0, 0, 0, 0, 0, 0, 0, 0, 0, 1, 0, 0, 0]"] ;
438 -> 440 ;
441 [label="gini = 0.0\nsamples = 11\nvalue = [0, 0, 0, 0, 0, 0, 0, 11, 0, 0, 0, 0, 0, 0\n0]"] ;
345 -> 441 ;
442 [label="X[61392] <= -0.1735\ngini = 0.7213\nsamples = 301\nvalue = [0, 1, 0, 3, 22, 141, 0, 11, 61, 2, 10, 27, 8\n11, 4]"] ;
0 -> 442 [labeldistance=2.5, labelangle=-45, headlabel="False"] ;
443 [label="X[19850] <= -0.1646\ngini = 0.2583\nsamples = 112\nvalue = [0, 0, 0, 1, 6, 96, 0, 0, 7, 1, 0, 1, 0, 0\n0]"] ;
442 -> 443 ;
444 [label="X[73204] <= 0.136\ngini = 0.1363\nsamples = 97\nvalue = [0, 0, 0, 0, 1, 90, 0, 0, 5, 0, 0, 1, 0, 0\n0]"] ;
443 -> 444 ;
445 [label="X[30321] <= 0.2365\ngini = 0.1013\nsamples = 95\nvalue = [0, 0, 0, 0, 1, 90, 0, 0, 3, 0, 0, 1, 0, 0\n0]"] ;
444 -> 445 ;
446 [label="X[68328] <= 1.0614\ngini = 0.0631\nsamples = 93\nvalue = [0, 0, 0, 0, 1, 90, 0, 0, 1, 0, 0, 1, 0, 0\n0]"] ;
445 -> 446 ;
447 [label="X[28162] <= -0.1098\ngini = 0.0428\nsamples = 92\nvalue = [0, 0, 0, 0, 1, 90, 0, 0, 1, 0, 0, 0, 0, 0\n0]"] ;
446 -> 447 ;
448 [label="X[85440] <= 1.0781\ngini = 0.0217\nsamples = 91\nvalue = [0, 0, 0, 0, 1, 90, 0, 0, 0, 0, 0, 0, 0, 0\n0]"] ;
447 -> 448 ;
449 [label="gini = 0.0\nsamples = 90\nvalue = [0, 0, 0, 0, 0, 90, 0, 0, 0, 0, 0, 0, 0, 0\n0]"] ;
448 -> 449 ;
450 [label="gini = 0.0\nsamples = 1\nvalue = [0, 0, 0, 0, 1, 0, 0, 0, 0, 0, 0, 0, 0, 0, 0]"] ;
448 -> 450 ;
451 [label="gini = 0.0\nsamples = 1\nvalue = [0, 0, 0, 0, 0, 0, 0, 0, 1, 0, 0, 0, 0, 0, 0]"] ;
447 -> 451 ;
452 [label="gini = 0.0\nsamples = 1\nvalue = [0, 0, 0, 0, 0, 0, 0, 0, 0, 0, 0, 1, 0, 0, 0]"] ;
446 -> 452 ;
453 [label="gini = 0.0\nsamples = 2\nvalue = [0, 0, 0, 0, 0, 0, 0, 0, 2, 0, 0, 0, 0, 0, 0]"] ;
445 -> 453 ;
454 [label="gini = 0.0\nsamples = 2\nvalue = [0, 0, 0, 0, 0, 0, 0, 0, 2, 0, 0, 0, 0, 0, 0]"] ;
444 -> 454 ;
455 [label="X[30719] <= -0.1641\ngini = 0.7022\nsamples = 15\nvalue = [0, 0, 0, 1, 5, 6, 0, 0, 2, 1, 0, 0, 0, 0, 0]"] ;
443 -> 455 ;
456 [label="X[17005] <= -0.0719\ngini = 0.5\nsamples = 6\nvalue = [0, 0, 0, 1, 4, 0, 0, 0, 1, 0, 0, 0, 0, 0, 0]"] ;
455 -> 456 ;
457 [label="gini = 0.0\nsamples = 4\nvalue = [0, 0, 0, 0, 4, 0, 0, 0, 0, 0, 0, 0, 0, 0, 0]"] ;
456 -> 457 ;
458 [label="X[3155] <= -0.0917\ngini = 0.5\nsamples = 2\nvalue = [0, 0, 0, 1, 0, 0, 0, 0, 1, 0, 0, 0, 0, 0, 0]"] ;
456 -> 458 ;
459 [label="gini = 0.0\nsamples = 1\nvalue = [0, 0, 0, 1, 0, 0, 0, 0, 0, 0, 0, 0, 0, 0, 0]"] ;
458 -> 459 ;
460 [label="gini = 0.0\nsamples = 1\nvalue = [0, 0, 0, 0, 0, 0, 0, 0, 1, 0, 0, 0, 0, 0, 0]"] ;
458 -> 460 ;
461 [label="X[1590] <= -0.0381\ngini = 0.5185\nsamples = 9\nvalue = [0, 0, 0, 0, 1, 6, 0, 0, 1, 1, 0, 0, 0, 0, 0]"] ;
455 -> 461 ;
462 [label="gini = 0.0\nsamples = 6\nvalue = [0, 0, 0, 0, 0, 6, 0, 0, 0, 0, 0, 0, 0, 0, 0]"] ;
461 -> 462 ;
463 [label="X[57595] <= 1.4049\ngini = 0.6667\nsamples = 3\nvalue = [0, 0, 0, 0, 1, 0, 0, 0, 1, 1, 0, 0, 0, 0, 0]"] ;
461 -> 463 ;
464 [label="X[48081] <= -0.1046\ngini = 0.5\nsamples = 2\nvalue = [0, 0, 0, 0, 1, 0, 0, 0, 0, 1, 0, 0, 0, 0, 0]"] ;
463 -> 464 ;
465 [label="gini = 0.0\nsamples = 1\nvalue = [0, 0, 0, 0, 1, 0, 0, 0, 0, 0, 0, 0, 0, 0, 0]"] ;
464 -> 465 ;
466 [label="gini = 0.0\nsamples = 1\nvalue = [0, 0, 0, 0, 0, 0, 0, 0, 0, 1, 0, 0, 0, 0, 0]"] ;
464 -> 466 ;
467 [label="gini = 0.0\nsamples = 1\nvalue = [0, 0, 0, 0, 0, 0, 0, 0, 1, 0, 0, 0, 0, 0, 0]"] ;
463 -> 467 ;
468 [label="X[98457] <= 0.0049\ngini = 0.8236\nsamples = 189\nvalue = [0, 1, 0, 2, 16, 45, 0, 11, 54, 1, 10, 26, 8\n11, 4]"] ;
442 -> 468 ;
469 [label="X[2264] <= -0.0313\ngini = 0.78\nsamples = 151\nvalue = [0, 1, 0, 2, 16, 39, 0, 11, 54, 1, 9, 6, 8, 0\n4]"] ;
468 -> 469 ;
470 [label="X[16428] <= -0.0016\ngini = 0.815\nsamples = 121\nvalue = [0, 1, 0, 2, 16, 39, 0, 11, 25, 1, 8, 6, 8, 0\n4]"] ;
469 -> 470 ;
471 [label="X[84488] <= 0.2519\ngini = 0.8455\nsamples = 96\nvalue = [0, 1, 0, 2, 16, 18, 0, 11, 24, 1, 8, 5, 6, 0\n4]"] ;
470 -> 471 ;
472 [label="X[36730] <= 0.192\ngini = 0.821\nsamples = 85\nvalue = [0, 1, 0, 2, 16, 18, 0, 1, 24, 1, 8, 5, 5, 0\n4]"] ;
471 -> 472 ;
473 [label="X[95754] <= -0.0796\ngini = 0.8024\nsamples = 73\nvalue = [0, 1, 0, 2, 5, 18, 0, 1, 24, 1, 8, 5, 4, 0\n4]"] ;
472 -> 473 ;
474 [label="X[12032] <= -0.0869\ngini = 0.8012\nsamples = 48\nvalue = [0, 1, 0, 2, 5, 18, 0, 1, 8, 1, 3, 4, 2, 0\n3]"] ;
473 -> 474 ;
475 [label="X[6786] <= -0.0086\ngini = 0.7717\nsamples = 44\nvalue = [0, 1, 0, 2, 5, 18, 0, 1, 8, 1, 3, 0, 2, 0\n3]"] ;
474 -> 475 ;
476 [label="X[12879] <= -0.1627\ngini = 0.6336\nsamples = 33\nvalue = [0, 0, 0, 1, 2, 18, 0, 1, 8, 1, 0, 0, 2, 0\n0]"] ;
475 -> 476 ;
477 [label="X[3554] <= -0.0285\ngini = 0.7483\nsamples = 21\nvalue = [0, 0, 0, 1, 2, 6, 0, 1, 8, 1, 0, 0, 2, 0, 0]"] ;
476 -> 477 ;
478 [label="X[98186] <= -0.2045\ngini = 0.7031\nsamples = 16\nvalue = [0, 0, 0, 1, 2, 1, 0, 1, 8, 1, 0, 0, 2, 0, 0]"] ;
477 -> 478 ;
479 [label="X[43252] <= 0.3904\ngini = 0.34\nsamples = 10\nvalue = [0, 0, 0, 1, 0, 0, 0, 0, 8, 0, 0, 0, 1, 0, 0]"] ;
478 -> 479 ;
480 [label="gini = 0.0\nsamples = 8\nvalue = [0, 0, 0, 0, 0, 0, 0, 0, 8, 0, 0, 0, 0, 0, 0]"] ;
479 -> 480 ;
481 [label="X[76581] <= -0.1443\ngini = 0.5\nsamples = 2\nvalue = [0, 0, 0, 1, 0, 0, 0, 0, 0, 0, 0, 0, 1, 0, 0]"] ;
479 -> 481 ;
482 [label="gini = 0.0\nsamples = 1\nvalue = [0, 0, 0, 1, 0, 0, 0, 0, 0, 0, 0, 0, 0, 0, 0]"] ;
481 -> 482 ;
483 [label="gini = 0.0\nsamples = 1\nvalue = [0, 0, 0, 0, 0, 0, 0, 0, 0, 0, 0, 0, 1, 0, 0]"] ;
481 -> 483 ;
484 [label="X[56096] <= -0.0725\ngini = 0.7778\nsamples = 6\nvalue = [0, 0, 0, 0, 2, 1, 0, 1, 0, 1, 0, 0, 1, 0, 0]"] ;
478 -> 484 ;
485 [label="X[95876] <= 0.266\ngini = 0.75\nsamples = 4\nvalue = [0, 0, 0, 0, 0, 1, 0, 1, 0, 1, 0, 0, 1, 0, 0]"] ;
484 -> 485 ;
486 [label="X[13773] <= 0.0869\ngini = 0.6667\nsamples = 3\nvalue = [0, 0, 0, 0, 0, 1, 0, 1, 0, 0, 0, 0, 1, 0, 0]"] ;
485 -> 486 ;
487 [label="X[47861] <= 0.3233\ngini = 0.5\nsamples = 2\nvalue = [0, 0, 0, 0, 0, 0, 0, 1, 0, 0, 0, 0, 1, 0, 0]"] ;
486 -> 487 ;
488 [label="gini = 0.0\nsamples = 1\nvalue = [0, 0, 0, 0, 0, 0, 0, 0, 0, 0, 0, 0, 1, 0, 0]"] ;
487 -> 488 ;
489 [label="gini = 0.0\nsamples = 1\nvalue = [0, 0, 0, 0, 0, 0, 0, 1, 0, 0, 0, 0, 0, 0, 0]"] ;
487 -> 489 ;
490 [label="gini = 0.0\nsamples = 1\nvalue = [0, 0, 0, 0, 0, 1, 0, 0, 0, 0, 0, 0, 0, 0, 0]"] ;
486 -> 490 ;
491 [label="gini = 0.0\nsamples = 1\nvalue = [0, 0, 0, 0, 0, 0, 0, 0, 0, 1, 0, 0, 0, 0, 0]"] ;
485 -> 491 ;
492 [label="gini = 0.0\nsamples = 2\nvalue = [0, 0, 0, 0, 2, 0, 0, 0, 0, 0, 0, 0, 0, 0, 0]"] ;
484 -> 492 ;
493 [label="gini = 0.0\nsamples = 5\nvalue = [0, 0, 0, 0, 0, 5, 0, 0, 0, 0, 0, 0, 0, 0, 0]"] ;
477 -> 493 ;
494 [label="gini = 0.0\nsamples = 12\nvalue = [0, 0, 0, 0, 0, 12, 0, 0, 0, 0, 0, 0, 0, 0\n0]"] ;
476 -> 494 ;
495 [label="X[68100] <= 0.9573\ngini = 0.7603\nsamples = 11\nvalue = [0, 1, 0, 1, 3, 0, 0, 0, 0, 0, 3, 0, 0, 0, 3]"] ;
475 -> 495 ;
496 [label="X[27215] <= -0.1117\ngini = 0.6875\nsamples = 8\nvalue = [0, 1, 0, 1, 3, 0, 0, 0, 0, 0, 3, 0, 0, 0, 0]"] ;
495 -> 496 ;
497 [label="X[99486] <= 1.1265\ngini = 0.56\nsamples = 5\nvalue = [0, 1, 0, 1, 3, 0, 0, 0, 0, 0, 0, 0, 0, 0, 0]"] ;
496 -> 497 ;
498 [label="gini = 0.0\nsamples = 3\nvalue = [0, 0, 0, 0, 3, 0, 0, 0, 0, 0, 0, 0, 0, 0, 0]"] ;
497 -> 498 ;
499 [label="X[89897] <= 0.975\ngini = 0.5\nsamples = 2\nvalue = [0, 1, 0, 1, 0, 0, 0, 0, 0, 0, 0, 0, 0, 0, 0]"] ;
497 -> 499 ;
500 [label="gini = 0.0\nsamples = 1\nvalue = [0, 1, 0, 0, 0, 0, 0, 0, 0, 0, 0, 0, 0, 0, 0]"] ;
499 -> 500 ;
501 [label="gini = 0.0\nsamples = 1\nvalue = [0, 0, 0, 1, 0, 0, 0, 0, 0, 0, 0, 0, 0, 0, 0]"] ;
499 -> 501 ;
502 [label="gini = 0.0\nsamples = 3\nvalue = [0, 0, 0, 0, 0, 0, 0, 0, 0, 0, 3, 0, 0, 0, 0]"] ;
496 -> 502 ;
503 [label="gini = 0.0\nsamples = 3\nvalue = [0, 0, 0, 0, 0, 0, 0, 0, 0, 0, 0, 0, 0, 0, 3]"] ;
495 -> 503 ;
504 [label="gini = 0.0\nsamples = 4\nvalue = [0, 0, 0, 0, 0, 0, 0, 0, 0, 0, 0, 4, 0, 0, 0]"] ;
474 -> 504 ;
505 [label="X[21803] <= 0.0489\ngini = 0.5408\nsamples = 25\nvalue = [0, 0, 0, 0, 0, 0, 0, 0, 16, 0, 5, 1, 2, 0\n1]"] ;
473 -> 505 ;
506 [label="X[72365] <= -0.021\ngini = 0.345\nsamples = 20\nvalue = [0, 0, 0, 0, 0, 0, 0, 0, 16, 0, 0, 1, 2, 0\n1]"] ;
505 -> 506 ;
507 [label="gini = 0.0\nsamples = 16\nvalue = [0, 0, 0, 0, 0, 0, 0, 0, 16, 0, 0, 0, 0, 0\n0]"] ;
506 -> 507 ;
508 [label="X[76534] <= -0.0206\ngini = 0.625\nsamples = 4\nvalue = [0, 0, 0, 0, 0, 0, 0, 0, 0, 0, 0, 1, 2, 0, 1]"] ;
506 -> 508 ;
509 [label="X[7105] <= 0.5071\ngini = 0.5\nsamples = 2\nvalue = [0, 0, 0, 0, 0, 0, 0, 0, 0, 0, 0, 1, 0, 0, 1]"] ;
508 -> 509 ;
510 [label="gini = 0.0\nsamples = 1\nvalue = [0, 0, 0, 0, 0, 0, 0, 0, 0, 0, 0, 0, 0, 0, 1]"] ;
509 -> 510 ;
511 [label="gini = 0.0\nsamples = 1\nvalue = [0, 0, 0, 0, 0, 0, 0, 0, 0, 0, 0, 1, 0, 0, 0]"] ;
509 -> 511 ;
512 [label="gini = 0.0\nsamples = 2\nvalue = [0, 0, 0, 0, 0, 0, 0, 0, 0, 0, 0, 0, 2, 0, 0]"] ;
508 -> 512 ;
513 [label="gini = 0.0\nsamples = 5\nvalue = [0, 0, 0, 0, 0, 0, 0, 0, 0, 0, 5, 0, 0, 0, 0]"] ;
505 -> 513 ;
514 [label="X[67316] <= 2.124\ngini = 0.1528\nsamples = 12\nvalue = [0, 0, 0, 0, 11, 0, 0, 0, 0, 0, 0, 0, 1, 0\n0]"] ;
472 -> 514 ;
515 [label="gini = 0.0\nsamples = 11\nvalue = [0, 0, 0, 0, 11, 0, 0, 0, 0, 0, 0, 0, 0, 0\n0]"] ;
514 -> 515 ;
516 [label="gini = 0.0\nsamples = 1\nvalue = [0, 0, 0, 0, 0, 0, 0, 0, 0, 0, 0, 0, 1, 0, 0]"] ;
514 -> 516 ;
517 [label="X[13953] <= 2.8672\ngini = 0.1653\nsamples = 11\nvalue = [0, 0, 0, 0, 0, 0, 0, 10, 0, 0, 0, 0, 1, 0\n0]"] ;
471 -> 517 ;
518 [label="gini = 0.0\nsamples = 10\nvalue = [0, 0, 0, 0, 0, 0, 0, 10, 0, 0, 0, 0, 0, 0\n0]"] ;
517 -> 518 ;
519 [label="gini = 0.0\nsamples = 1\nvalue = [0, 0, 0, 0, 0, 0, 0, 0, 0, 0, 0, 0, 1, 0, 0]"] ;
517 -> 519 ;
520 [label="X[73972] <= 4.5966\ngini = 0.2848\nsamples = 25\nvalue = [0, 0, 0, 0, 0, 21, 0, 0, 1, 0, 0, 1, 2, 0\n0]"] ;
470 -> 520 ;
521 [label="gini = 0.0\nsamples = 21\nvalue = [0, 0, 0, 0, 0, 21, 0, 0, 0, 0, 0, 0, 0, 0\n0]"] ;
520 -> 521 ;
522 [label="X[52018] <= 0.2068\ngini = 0.625\nsamples = 4\nvalue = [0, 0, 0, 0, 0, 0, 0, 0, 1, 0, 0, 1, 2, 0, 0]"] ;
520 -> 522 ;
523 [label="X[51021] <= 2.2103\ngini = 0.5\nsamples = 2\nvalue = [0, 0, 0, 0, 0, 0, 0, 0, 1, 0, 0, 1, 0, 0, 0]"] ;
522 -> 523 ;
524 [label="gini = 0.0\nsamples = 1\nvalue = [0, 0, 0, 0, 0, 0, 0, 0, 0, 0, 0, 1, 0, 0, 0]"] ;
523 -> 524 ;
525 [label="gini = 0.0\nsamples = 1\nvalue = [0, 0, 0, 0, 0, 0, 0, 0, 1, 0, 0, 0, 0, 0, 0]"] ;
523 -> 525 ;
526 [label="gini = 0.0\nsamples = 2\nvalue = [0, 0, 0, 0, 0, 0, 0, 0, 0, 0, 0, 0, 2, 0, 0]"] ;
522 -> 526 ;
527 [label="X[41886] <= 2.1885\ngini = 0.0644\nsamples = 30\nvalue = [0, 0, 0, 0, 0, 0, 0, 0, 29, 0, 1, 0, 0, 0\n0]"] ;
469 -> 527 ;
528 [label="gini = 0.0\nsamples = 29\nvalue = [0, 0, 0, 0, 0, 0, 0, 0, 29, 0, 0, 0, 0, 0\n0]"] ;
527 -> 528 ;
529 [label="gini = 0.0\nsamples = 1\nvalue = [0, 0, 0, 0, 0, 0, 0, 0, 0, 0, 1, 0, 0, 0, 0]"] ;
527 -> 529 ;
530 [label="X[81788] <= 0.298\ngini = 0.6136\nsamples = 38\nvalue = [0, 0, 0, 0, 0, 6, 0, 0, 0, 0, 1, 20, 0, 11\n0]"] ;
468 -> 530 ;
531 [label="X[74439] <= 3.2031\ngini = 0.4444\nsamples = 30\nvalue = [0, 0, 0, 0, 0, 0, 0, 0, 0, 0, 0, 20, 0, 10\n0]"] ;
530 -> 531 ;
532 [label="X[73747] <= -0.1082\ngini = 0.32\nsamples = 25\nvalue = [0, 0, 0, 0, 0, 0, 0, 0, 0, 0, 0, 20, 0, 5\n0]"] ;
531 -> 532 ;
533 [label="gini = 0.0\nsamples = 3\nvalue = [0, 0, 0, 0, 0, 0, 0, 0, 0, 0, 0, 0, 0, 3, 0]"] ;
532 -> 533 ;
534 [label="X[97584] <= 8.483\ngini = 0.1653\nsamples = 22\nvalue = [0, 0, 0, 0, 0, 0, 0, 0, 0, 0, 0, 20, 0, 2\n0]"] ;
532 -> 534 ;
535 [label="gini = 0.0\nsamples = 20\nvalue = [0, 0, 0, 0, 0, 0, 0, 0, 0, 0, 0, 20, 0, 0\n0]"] ;
534 -> 535 ;
536 [label="gini = 0.0\nsamples = 2\nvalue = [0, 0, 0, 0, 0, 0, 0, 0, 0, 0, 0, 0, 0, 2, 0]"] ;
534 -> 536 ;
537 [label="gini = 0.0\nsamples = 5\nvalue = [0, 0, 0, 0, 0, 0, 0, 0, 0, 0, 0, 0, 0, 5, 0]"] ;
531 -> 537 ;
538 [label="X[35536] <= 1.5373\ngini = 0.4062\nsamples = 8\nvalue = [0, 0, 0, 0, 0, 6, 0, 0, 0, 0, 1, 0, 0, 1, 0]"] ;
530 -> 538 ;
539 [label="gini = 0.0\nsamples = 6\nvalue = [0, 0, 0, 0, 0, 6, 0, 0, 0, 0, 0, 0, 0, 0, 0]"] ;
538 -> 539 ;
540 [label="X[91464] <= 2.7234\ngini = 0.5\nsamples = 2\nvalue = [0, 0, 0, 0, 0, 0, 0, 0, 0, 0, 1, 0, 0, 1, 0]"] ;
538 -> 540 ;
541 [label="gini = 0.0\nsamples = 1\nvalue = [0, 0, 0, 0, 0, 0, 0, 0, 0, 0, 0, 0, 0, 1, 0]"] ;
540 -> 541 ;
542 [label="gini = 0.0\nsamples = 1\nvalue = [0, 0, 0, 0, 0, 0, 0, 0, 0, 0, 1, 0, 0, 0, 0]"] ;
540 -> 542 ;
}